{"learner":{"attributes":{"best_iteration":"641","best_score":"25.61153396075685","scikit_learn":"{\"_estimator_type\": \"regressor\"}"},"feature_names":[],"feature_types":[],"gradient_booster":{"model":{"cats":{"enc":[],"feature_segments":[],"sorted_idx":[]},"gbtree_model_param":{"num_parallel_tree":"1","num_trees":"692"},"iteration_indptr":[0,1,2,3,4,5,6,7,8,9,10,11,12,13,14,15,16,17,18,19,20,21,22,23,24,25,26,27,28,29,30,31,32,33,34,35,36,37,38,39,40,41,42,43,44,45,46,47,48,49,50,51,52,53,54,55,56,57,58,59,60,61,62,63,64,65,66,67,68,69,70,71,72,73,74,75,76,77,78,79,80,81,82,83,84,85,86,87,88,89,90,91,92,93,94,95,96,97,98,99,100,101,102,103,104,105,106,107,108,109,110,111,112,113,114,115,116,117,118,119,120,121,122,123,124,125,126,127,128,129,130,131,132,133,134,135,136,137,138,139,140,141,142,143,144,145,146,147,148,149,150,151,152,153,154,155,156,157,158,159,160,161,162,163,164,165,166,167,168,169,170,171,172,173,174,175,176,177,178,179,180,181,182,183,184,185,186,187,188,189,190,191,192,193,194,195,196,197,198,199,200,201,202,203,204,205,206,207,208,209,210,211,212,213,214,215,216,217,218,219,220,221,222,223,224,225,226,227,228,229,230,231,232,233,234,235,236,237,238,239,240,241,242,243,244,245,246,247,248,249,250,251,252,253,254,255,256,257,258,259,260,261,262,263,264,265,266,267,268,269,270,271,272,273,274,275,276,277,278,279,280,281,282,283,284,285,286,287,288,289,290,291,292,293,294,295,296,297,298,299,300,301,302,303,304,305,306,307,308,309,310,311,312,313,314,315,316,317,318,319,320,321,322,323,324,325,326,327,328,329,330,331,332,333,334,335,336,337,338,339,340,341,342,343,344,345,346,347,348,349,350,351,352,353,354,355,356,357,358,359,360,361,362,363,364,365,366,367,368,369,370,371,372,373,374,375,376,377,378,379,380,381,382,383,384,385,386,387,388,389,390,391,392,393,394,395,396,397,398,399,400,401,402,403,404,405,406,407,408,409,410,411,412,413,414,415,416,417,418,419,420,421,422,423,424,425,426,427,428,429,430,431,432,433,434,435,436,437,438,439,440,441,442,443,444,445,446,447,448,449,450,451,452,453,454,455,456,457,458,459,460,461,462,463,464,465,466,467,468,469,470,471,472,473,474,475,476,477,478,479,480,481,482,483,484,485,486,487,488,489,490,491,492,493,494,495,496,497,498,499,500,501,502,503,504,505,506,507,508,509,510,511,512,513,514,515,516,517,518,519,520,521,522,523,524,525,526,527,528,529,530,531,532,533,534,535,536,537,538,539,540,541,542,543,544,545,546,547,548,549,550,551,552,553,554,555,556,557,558,559,560,561,562,563,564,565,566,567,568,569,570,571,572,573,574,575,576,577,578,579,580,581,582,583,584,585,586,587,588,589,590,591,592,593,594,595,596,597,598,599,600,601,602,603,604,605,606,607,608,609,610,611,612,613,614,615,616,617,618,619,620,621,622,623,624,625,626,627,628,629,630,631,632,633,634,635,636,637,638,639,640,641,642,643,644,645,646,647,648,649,650,651,652,653,654,655,656,657,658,659,660,661,662,663,664,665,666,667,668,669,670,671,672,673,674,675,676,677,678,679,680,681,682,683,684,685,686,687,688,689,690,691,692],"tree_info":[0,0,0,0,0,0,0,0,0,0,0,0,0,0,0,0,0,0,0,0,0,0,0,0,0,0,0,0,0,0,0,0,0,0,0,0,0,0,0,0,0,0,0,0,0,0,0,0,0,0,0,0,0,0,0,0,0,0,0,0,0,0,0,0,0,0,0,0,0,0,0,0,0,0,0,0,0,0,0,0,0,0,0,0,0,0,0,0,0,0,0,0,0,0,0,0,0,0,0,0,0,0,0,0,0,0,0,0,0,0,0,0,0,0,0,0,0,0,0,0,0,0,0,0,0,0,0,0,0,0,0,0,0,0,0,0,0,0,0,0,0,0,0,0,0,0,0,0,0,0,0,0,0,0,0,0,0,0,0,0,0,0,0,0,0,0,0,0,0,0,0,0,0,0,0,0,0,0,0,0,0,0,0,0,0,0,0,0,0,0,0,0,0,0,0,0,0,0,0,0,0,0,0,0,0,0,0,0,0,0,0,0,0,0,0,0,0,0,0,0,0,0,0,0,0,0,0,0,0,0,0,0,0,0,0,0,0,0,0,0,0,0,0,0,0,0,0,0,0,0,0,0,0,0,0,0,0,0,0,0,0,0,0,0,0,0,0,0,0,0,0,0,0,0,0,0,0,0,0,0,0,0,0,0,0,0,0,0,0,0,0,0,0,0,0,0,0,0,0,0,0,0,0,0,0,0,0,0,0,0,0,0,0,0,0,0,0,0,0,0,0,0,0,0,0,0,0,0,0,0,0,0,0,0,0,0,0,0,0,0,0,0,0,0,0,0,0,0,0,0,0,0,0,0,0,0,0,0,0,0,0,0,0,0,0,0,0,0,0,0,0,0,0,0,0,0,0,0,0,0,0,0,0,0,0,0,0,0,0,0,0,0,0,0,0,0,0,0,0,0,0,0,0,0,0,0,0,0,0,0,0,0,0,0,0,0,0,0,0,0,0,0,0,0,0,0,0,0,0,0,0,0,0,0,0,0,0,0,0,0,0,0,0,0,0,0,0,0,0,0,0,0,0,0,0,0,0,0,0,0,0,0,0,0,0,0,0,0,0,0,0,0,0,0,0,0,0,0,0,0,0,0,0,0,0,0,0,0,0,0,0,0,0,0,0,0,0,0,0,0,0,0,0,0,0,0,0,0,0,0,0,0,0,0,0,0,0,0,0,0,0,0,0,0,0,0,0,0,0,0,0,0,0,0,0,0,0,0,0,0,0,0,0,0,0,0,0,0,0,0,0,0,0,0,0,0,0,0,0,0,0,0,0,0,0,0,0,0,0,0,0,0,0,0,0,0,0,0,0,0,0,0,0,0,0,0,0,0,0,0,0,0,0,0,0,0,0,0,0,0,0,0,0,0,0,0,0,0,0,0,0,0,0,0,0,0,0,0,0,0,0,0,0,0,0,0,0,0,0,0,0,0,0,0,0,0,0,0,0,0,0,0,0,0,0,0,0,0,0,0,0,0,0,0,0,0,0,0,0,0,0,0,0,0,0,0,0,0,0,0,0,0,0,0,0,0,0,0,0,0,0,0,0,0,0,0,0,0,0,0,0,0],"trees":[{"base_weights":[1.2735172E-1,-4.682599E0,1.2840002E1,-1.1907091E1,5.794944E-2,9.329222E0,2.125675E1,-1.8635588E1,-8.96791E0,2.6271565E0,-2.598077E0,7.8871565E0,1.5786008E1,1.5512548E1,3.395133E1,-7.7156053E0,-2.2224636E1,-1.2711626E0,-1.0752444E1,6.7213783E0,2.043491E0,3.227519E0,-4.64451E0,6.764893E0,1.1276676E1,7.4713855E0,2.0436474E1,1.1925635E1,1.8219273E1,2.3926453E-1,4.0209973E-1,-2.6599536E-2,-9.2741586E-2,-2.857884E-1,-1.7155112E-1,-4.4405926E-2,1.1513088E-2,-8.1152186E-2,-1.571818E-1,4.6303585E-2,8.540024E-2,-3.4963249E-3,2.6968524E-2,-4.641712E-2,1.0371474E-1,-7.6776914E-2,-1.5337746E-2,7.570145E-2,2.1547906E-2,1.2565966E-1,1.92998E-2,2.2038613E-1,4.0598474E-2,2.1290676E-1,-8.8639045E-3,9.718978E-2,1.3925692E-1,1.04098916E-1,1.9954778E-1],"categories":[],"categories_nodes":[],"categories_segments":[],"categories_sizes":[],"default_left":[0,0,0,0,0,0,0,0,0,0,0,0,0,0,0,0,0,0,0,0,0,0,0,0,0,0,0,0,0,0,0,0,0,0,0,0,0,0,0,0,0,0,0,0,0,0,0,0,0,0,0,0,0,0,0,0,0,0,0],"id":0,"left_children":[1,3,5,7,9,11,13,15,17,19,21,23,25,27,29,31,33,35,37,39,41,43,45,47,49,51,53,55,57,-1,-1,-1,-1,-1,-1,-1,-1,-1,-1,-1,-1,-1,-1,-1,-1,-1,-1,-1,-1,-1,-1,-1,-1,-1,-1,-1,-1,-1,-1],"loss_changes":[7.55158E4,3.0686945E4,9.818918E3,6.853453E3,3.7053694E3,2.1194707E3,6.6924336E3,4.0221055E3,3.406373E3,6.4580994E2,3.1980813E3,6.806963E2,1.5099873E3,4.623379E2,9.201836E2,1.9595715E2,2.08675E3,3.7364948E2,2.517789E3,8.975281E1,3.8089166E2,3.9833618E3,1.856439E3,5.479575E2,5.5417676E2,7.553697E2,5.106504E2,1.0299805E1,3.072959E2,0E0,0E0,0E0,0E0,0E0,0E0,0E0,0E0,0E0,0E0,0E0,0E0,0E0,0E0,0E0,0E0,0E0,0E0,0E0,0E0,0E0,0E0,0E0,0E0,0E0,0E0,0E0,0E0,0E0,0E0],"parents":[2147483647,0,0,1,1,2,2,3,3,4,4,5,5,6,6,7,7,8,8,9,9,10,10,11,11,12,12,13,13,14,14,15,15,16,16,17,17,18,18,19,19,20,20,21,21,22,22,23,23,24,24,25,25,26,26,27,27,28,28],"right_children":[2,4,6,8,10,12,14,16,18,20,22,24,26,28,30,32,34,36,38,40,42,44,46,48,50,52,54,56,58,-1,-1,-1,-1,-1,-1,-1,-1,-1,-1,-1,-1,-1,-1,-1,-1,-1,-1,-1,-1,-1,-1,-1,-1,-1,-1,-1,-1,-1,-1],"split_conditions":[7.8160787E-1,-9.9416566E-1,9.8624796E-1,1.1399896E-1,2.758112E2,1.4135324E1,3.1751804E0,2.3023483E2,2.899612E2,-3.5716398E0,-3.156557E0,2.59387E0,8.6469513E-1,2.5642877E2,2.6550985E1,1.8806631E2,-8.3722E0,2.0699379E-1,1.0344474E1,4.644301E-1,3.2203925E-1,4.589096E-1,6.3726616E-1,6.275278E0,1.906692E1,1.629981E1,9.630888E-1,1.17648E0,1.4595471E1,2.3926453E-1,4.0209973E-1,-2.6599536E-2,-9.2741586E-2,-2.857884E-1,-1.7155112E-1,-4.4405926E-2,1.1513088E-2,-8.1152186E-2,-1.571818E-1,4.6303585E-2,8.540024E-2,-3.4963249E-3,2.6968524E-2,-4.641712E-2,1.0371474E-1,-7.6776914E-2,-1.5337746E-2,7.570145E-2,2.1547906E-2,1.2565966E-1,1.92998E-2,2.2038613E-1,4.0598474E-2,2.1290676E-1,-8.8639045E-3,9.718978E-2,1.3925692E-1,1.04098916E-1,1.9954778E-1],"split_indices":[8,2,8,8,4,1,2,4,4,3,3,2,8,4,10,4,1,8,7,8,8,8,8,1,7,1,8,2,9,0,0,0,0,0,0,0,0,0,0,0,0,0,0,0,0,0,0,0,0,0,0,0,0,0,0,0,0,0,0],"split_type":[0,0,0,0,0,0,0,0,0,0,0,0,0,0,0,0,0,0,0,0,0,0,0,0,0,0,0,0,0,0,0,0,0,0,0,0,0,0,0,0,0,0,0,0,0,0,0,0,0,0,0,0,0,0,0,0,0,0,0],"sum_hessian":[1.233E3,8.95E2,3.38E2,3.54E2,5.41E2,2.4E2,9.8E1,1.06E2,2.48E2,2.75E2,2.66E2,1.98E2,4.2E1,6.9E1,2.9E1,2.7E1,7.9E1,4.7E1,2.01E2,3.3E1,2.42E2,6.9E1,1.97E2,1.51E2,4.7E1,1.6E1,2.6E1,3.2E1,3.7E1,1.3E1,1.6E1,7E0,2E1,3.3E1,4.6E1,2E1,2.7E1,1.33E2,6.8E1,1.7E1,1.6E1,5.2E1,1.9E2,3.3E1,3.6E1,9.9E1,9.8E1,1.28E2,2.3E1,4.1E1,6E0,2E0,1.4E1,2.5E1,1E0,1.8E1,1.4E1,8E0,2.9E1],"tree_param":{"num_deleted":"0","num_feature":"11","num_nodes":"59","size_leaf_vector":"1"}},{"base_weights":[7.595003E-2,-5.1269674E0,1.2230099E1,-1.2446738E1,-9.616638E-1,7.281123E0,1.730359E1,-2.0950314E1,-9.643681E0,1.6412055E0,-5.0701523E0,4.1949177E0,8.891028E0,1.2515324E1,2.5997429E1,-2.9868784E1,-1.4484599E1,-8.046379E0,-1.8849894E1,5.1204253E-2,5.075725E0,-9.681817E0,-2.3134983E0,6.070964E0,1.6687231E-1,7.7081957E0,1.6245537E1,1.0598139E1,1.9223324E1,2.3764988E1,4.0461951E-1,-5.3648E-2,-3.0506757E-1,-9.938571E-2,-1.942327E-1,-2.2915205E-2,-9.728634E-2,-1.01407975E-1,-2.519177E-1,-1.239957E-1,4.4006235E-3,4.2572435E-2,1.6043219E-1,-1.563189E-1,-7.669797E-2,4.1997913E-2,-7.0435494E-2,1.1064064E-1,5.0191004E-2,3.530804E-2,-2.0075748E-2,8.446749E-2,1.1574088E-2,5.6403797E-2,2.05533E-1,9.011211E-2,1.4016925E-1,1.4146797E-1,2.1664554E-1,1.9629432E-1,3.4035915E-1],"categories":[],"categories_nodes":[],"categories_segments":[],"categories_sizes":[],"default_left":[0,0,0,0,0,0,0,0,0,0,0,0,0,0,0,0,0,0,0,0,0,0,0,0,0,0,0,0,0,0,0,0,0,0,0,0,0,0,0,0,0,0,0,0,0,0,0,0,0,0,0,0,0,0,0,0,0,0,0,0,0],"id":1,"left_children":[1,3,5,7,9,11,13,15,17,19,21,23,25,27,29,31,33,35,37,39,41,43,45,47,49,51,53,55,57,59,-1,-1,-1,-1,-1,-1,-1,-1,-1,-1,-1,-1,-1,-1,-1,-1,-1,-1,-1,-1,-1,-1,-1,-1,-1,-1,-1,-1,-1,-1,-1],"loss_changes":[7.721188E4,2.6056184E4,9.063754E3,7.187125E3,5.8471685E3,8.918115E2,7.167742E3,3.9498477E3,3.3040254E3,1.8291387E3,2.672706E3,4.9773572E2,9.360742E2,1.3138027E3,1.0727695E3,3.2095508E2,8.3972266E2,1.9332979E3,1.6224238E3,1.119021E3,8.8322974E2,8.2586865E2,4.15788E3,1.8081091E2,1.6801158E2,5.0790186E2,6.1502344E2,3.836748E2,3.3408203E0,1.7530234E3,0E0,0E0,0E0,0E0,0E0,0E0,0E0,0E0,0E0,0E0,0E0,0E0,0E0,0E0,0E0,0E0,0E0,0E0,0E0,0E0,0E0,0E0,0E0,0E0,0E0,0E0,0E0,0E0,0E0,0E0,0E0],"parents":[2147483647,0,0,1,1,2,2,3,3,4,4,5,5,6,6,7,7,8,8,9,9,10,10,11,11,12,12,13,13,14,14,15,15,16,16,17,17,18,18,19,19,20,20,21,21,22,22,23,23,24,24,25,25,26,26,27,27,28,28,29,29],"right_children":[2,4,6,8,10,12,14,16,18,20,22,24,26,28,30,32,34,36,38,40,42,44,46,48,50,52,54,56,58,60,-1,-1,-1,-1,-1,-1,-1,-1,-1,-1,-1,-1,-1,-1,-1,-1,-1,-1,-1,-1,-1,-1,-1,-1,-1,-1,-1,-1,-1,-1,-1],"split_conditions":[7.659052E-1,-1.268686E0,9.147283E-1,8.643134E-2,4.9596887E2,8.082479E-1,2.7090476E0,-6.424755E0,6.084466E2,3.0354175E-1,4.644301E-1,4.6921496E0,4.6903124E0,1.1059353E0,6.8720455E0,2.3023483E2,4.4453568E2,4.0257535E2,2.7611578E1,-1.2416838E1,3.1537054E0,2.2672199E-1,1.3149797E0,-1.2077541E0,3.8712195E2,5.403001E2,2.9376215E1,7.158434E1,1.17648E0,3.7622757E1,4.0461951E-1,-5.3648E-2,-3.0506757E-1,-9.938571E-2,-1.942327E-1,-2.2915205E-2,-9.728634E-2,-1.01407975E-1,-2.519177E-1,-1.239957E-1,4.4006235E-3,4.2572435E-2,1.6043219E-1,-1.563189E-1,-7.669797E-2,4.1997913E-2,-7.0435494E-2,1.1064064E-1,5.0191004E-2,3.530804E-2,-2.0075748E-2,8.446749E-2,1.1574088E-2,5.6403797E-2,2.05533E-1,9.011211E-2,1.4016925E-1,1.4146797E-1,2.1664554E-1,1.9629432E-1,3.4035915E-1],"split_indices":[8,2,8,8,6,8,2,1,6,2,8,1,2,8,2,4,4,6,10,1,2,8,1,1,5,4,10,0,2,10,0,0,0,0,0,0,0,0,0,0,0,0,0,0,0,0,0,0,0,0,0,0,0,0,0,0,0,0,0,0,0],"split_type":[0,0,0,0,0,0,0,0,0,0,0,0,0,0,0,0,0,0,0,0,0,0,0,0,0,0,0,0,0,0,0,0,0,0,0,0,0,0,0,0,0,0,0,0,0,0,0,0,0,0,0,0,0,0,0,0,0,0,0,0,0],"sum_hessian":[1.219E3,8.54E2,3.65E2,3.09E2,5.45E2,1.86E2,1.79E2,7.5E1,2.34E2,3.34E2,2.11E2,6.5E1,1.21E2,1.17E2,6.2E1,3E1,4.5E1,2.01E2,3.3E1,2.29E2,1.05E2,7.8E1,1.33E2,4.4E1,2.1E1,1.06E2,1.5E1,9.3E1,2.4E1,5.6E1,6E0,1E0,2.9E1,2.5E1,2E1,4.6E1,1.55E2,1.5E1,1.8E1,6E0,2.23E2,9.9E1,6E0,1.8E1,6E1,5.6E1,7.7E1,6E0,3.8E1,8E0,1.3E1,9.5E1,1.1E1,5E0,1E1,6.6E1,2.7E1,1E1,1.4E1,4.2E1,1.4E1],"tree_param":{"num_deleted":"0","num_feature":"11","num_nodes":"61","size_leaf_vector":"1"}},{"base_weights":[-9.155588E-2,-5.031719E0,1.212464E1,-1.4489603E1,-1.7335293E0,9.790361E0,2.2566124E1,-2.2082407E1,-1.1623397E1,-6.433282E0,1.4400494E-1,6.4737544E0,1.3690492E1,1.5001392E1,2.7476437E1,-2.8304005E1,-1.4917341E1,-1.5281954E1,-7.6858397E0,-4.9364805E0,-1.16609335E1,2.8476565E0,-1.936281E0,4.0019507E0,7.842663E0,1.1302218E1,1.8657377E1,8.741831E0,1.7645515E1,2.2142677E1,3.3823105E1,-2.8891608E-1,-5.337976E-2,-1.6520406E-1,-3.5979252E-2,-1.61715E-1,-3.186703E-2,-9.295376E-2,-2.9468386E-2,-5.6679998E-2,3.5825625E-2,-1.9883049E-1,-5.932342E-2,-3.10419E-3,5.595427E-2,-1.53446775E-2,-2.2121853E-1,5.3017214E-2,-4.6173832E-3,1.3788734E-2,8.466786E-2,9.9259794E-2,1.599502E-1,1.551018E-1,2.4970588E-1,1.3926159E-1,4.5305245E-2,3.139402E-2,1.9262567E-1,2.3238264E-1,-9.801056E-3,3.5056728E-1,8.276186E-2],"categories":[],"categories_nodes":[],"categories_segments":[],"categories_sizes":[],"default_left":[0,0,0,0,0,0,0,0,0,0,0,0,0,0,0,0,0,0,0,0,0,0,0,0,0,0,0,0,0,0,0,0,0,0,0,0,0,0,0,0,0,0,0,0,0,0,0,0,0,0,0,0,0,0,0,0,0,0,0,0,0,0,0],"id":2,"left_children":[1,3,5,7,9,11,13,15,17,19,21,23,25,27,29,31,33,35,37,39,41,43,45,47,49,51,53,55,57,59,61,-1,-1,-1,-1,-1,-1,-1,-1,-1,-1,-1,-1,-1,-1,-1,-1,-1,-1,-1,-1,-1,-1,-1,-1,-1,-1,-1,-1,-1,-1,-1,-1],"loss_changes":[7.314487E4,2.6895219E4,8.285363E3,4.596371E3,5.6570757E3,3.6237754E3,1.9279648E3,2.2524688E3,2.2450938E3,1.3743667E3,2.5870989E3,4.998506E2,1.3430859E3,2.9262402E2,5.0357422E2,2.6411914E2,4.8493408E2,8.5224805E2,5.9044336E2,9.1769116E2,1.7660923E3,1.7372703E3,2.0748696E3,3.3895093E2,3.9174512E2,4.289502E2,4.2732812E2,1.552351E2,3.6175537E2,6.054336E2,1.8259375E2,0E0,0E0,0E0,0E0,0E0,0E0,0E0,0E0,0E0,0E0,0E0,0E0,0E0,0E0,0E0,0E0,0E0,0E0,0E0,0E0,0E0,0E0,0E0,0E0,0E0,0E0,0E0,0E0,0E0,0E0,0E0,0E0],"parents":[2147483647,0,0,1,1,2,2,3,3,4,4,5,5,6,6,7,7,8,8,9,9,10,10,11,11,12,12,13,13,14,14,15,15,16,16,17,17,18,18,19,19,20,20,21,21,22,22,23,23,24,24,25,25,26,26,27,27,28,28,29,29,30,30],"right_children":[2,4,6,8,10,12,14,16,18,20,22,24,26,28,30,32,34,36,38,40,42,44,46,48,50,52,54,56,58,60,62,-1,-1,-1,-1,-1,-1,-1,-1,-1,-1,-1,-1,-1,-1,-1,-1,-1,-1,-1,-1,-1,-1,-1,-1,-1,-1,-1,-1,-1,-1,-1,-1],"split_conditions":[7.6751566E-1,2.1810438E-1,3.9965994E0,-6.8532486E0,-9.1113156E-1,9.147283E-1,9.398055E-1,8.643134E-2,-2.0405476E0,9.927952E0,1.7934845E-1,8.082479E-1,2.050049E0,4.6903124E0,1.7485254E1,2.6046804E1,-1.049077E0,1.5609748E1,2.3489794E1,5.585952E1,5.703083E1,4.507663E-1,5.8890244E1,6.8471937E0,5.1168976E0,1.117486E0,1.0960042E0,1.9900171E1,5.609966E1,1.1860534E1,5.6237328E1,-2.8891608E-1,-5.337976E-2,-1.6520406E-1,-3.5979252E-2,-1.61715E-1,-3.186703E-2,-9.295376E-2,-2.9468386E-2,-5.6679998E-2,3.5825625E-2,-1.9883049E-1,-5.932342E-2,-3.10419E-3,5.595427E-2,-1.53446775E-2,-2.2121853E-1,5.3017214E-2,-4.6173832E-3,1.3788734E-2,8.466786E-2,9.9259794E-2,1.599502E-1,1.551018E-1,2.4970588E-1,1.3926159E-1,4.5305245E-2,3.139402E-2,1.9262567E-1,2.3238264E-1,-9.801056E-3,3.5056728E-1,8.276186E-2],"split_indices":[8,8,2,1,2,8,8,8,2,3,3,8,2,2,7,7,2,7,10,0,0,8,10,1,7,8,8,9,0,3,10,0,0,0,0,0,0,0,0,0,0,0,0,0,0,0,0,0,0,0,0,0,0,0,0,0,0,0,0,0,0,0,0],"split_type":[0,0,0,0,0,0,0,0,0,0,0,0,0,0,0,0,0,0,0,0,0,0,0,0,0,0,0,0,0,0,0,0,0,0,0,0,0,0,0,0,0,0,0,0,0,0,0,0,0,0,0,0,0,0,0,0,0,0,0,0,0,0,0],"sum_hessian":[1.21E3,8.62E2,3.48E2,2.22E2,6.4E2,2.86E2,6.2E1,5.9E1,1.63E2,1.82E2,4.58E2,1.56E2,1.3E2,2.6E1,3.6E1,3E1,2.9E1,8.3E1,8E1,1.43E2,3.9E1,1.99E2,2.59E2,5.7E1,9.9E1,9E1,4E1,9E0,1.7E1,2.2E1,1.4E1,2.9E1,1E0,2.5E1,4E0,7.7E1,6E0,5.9E1,2.1E1,1.32E2,1.1E1,1.5E1,2.4E1,9.3E1,1.06E2,2.55E2,4E0,4.4E1,1.3E1,9E0,9E1,7.2E1,1.8E1,2.9E1,1.1E1,3E0,6E0,2E0,1.5E1,2.1E1,1E0,1.3E1,1E0],"tree_param":{"num_deleted":"0","num_feature":"11","num_nodes":"63","size_leaf_vector":"1"}},{"base_weights":[1.8549387E-1,-4.9341316E0,1.1887004E1,-1.2560887E1,-5.571091E-1,8.769407E0,2.035042E1,-1.9722433E1,-9.871311E0,1.4501265E0,-4.795239E0,5.828045E0,1.2073203E1,1.649864E1,3.978183E1,-1.387032E1,-2.4616081E1,-1.5275479E1,-7.842312E0,-1.7843738E-2,4.519666E0,-1.617084E1,-3.6421227E0,5.3388114E0,1.4989808E1,9.927366E0,1.9891497E1,1.2970196E1,2.08209E1,1.020212E-1,4.107367E1,-1.7363279E-1,-8.911985E-2,-7.96007E-2,-2.561627E-1,-7.6597586E-2,-1.927263E-1,-2.5527775E-2,-9.726122E-2,-1.1954159E-1,3.1914033E-3,6.512948E-2,-3.676084E-3,-1.7937425E-1,-2.5364887E-2,3.498676E-2,-6.0906466E-2,7.029114E-2,2.4227738E-2,2.0318927E-1,1.1113389E-2,8.395042E-2,1.4958808E-1,2.1774061E-1,7.2534025E-2,8.773593E-2,1.6506536E-1,1.8134423E-1,2.8292572E-1,4.227521E-1,1.2126022E-1],"categories":[],"categories_nodes":[],"categories_segments":[],"categories_sizes":[],"default_left":[0,0,0,0,0,0,0,0,0,0,0,0,0,0,0,0,0,0,0,0,0,0,0,0,0,0,0,0,0,0,0,0,0,0,0,0,0,0,0,0,0,0,0,0,0,0,0,0,0,0,0,0,0,0,0,0,0,0,0,0,0],"id":3,"left_children":[1,3,5,7,9,11,13,15,17,19,21,23,25,27,29,31,33,35,37,39,41,43,45,47,49,51,53,55,57,-1,59,-1,-1,-1,-1,-1,-1,-1,-1,-1,-1,-1,-1,-1,-1,-1,-1,-1,-1,-1,-1,-1,-1,-1,-1,-1,-1,-1,-1,-1,-1],"loss_changes":[7.4403664E4,2.8835467E4,9.795262E3,5.8726953E3,4.685762E3,2.6311465E3,6.903051E3,2.0928125E3,2.4131328E3,1.685322E3,2.262882E3,5.878262E2,1.9835117E3,1.0415234E3,1.9235547E2,5.5534814E2,5.4575586E2,1.7397305E3,1.6691318E3,1.0254915E3,1.1811418E3,3.3988184E2,2.8537852E3,6.878154E2,4.9513904E2,6.7623926E2,4.8444922E2,5.97209E2,2.2961133E2,0E0,9.095703E0,0E0,0E0,0E0,0E0,0E0,0E0,0E0,0E0,0E0,0E0,0E0,0E0,0E0,0E0,0E0,0E0,0E0,0E0,0E0,0E0,0E0,0E0,0E0,0E0,0E0,0E0,0E0,0E0,0E0,0E0],"parents":[2147483647,0,0,1,1,2,2,3,3,4,4,5,5,6,6,7,7,8,8,9,9,10,10,11,11,12,12,13,13,14,14,15,15,16,16,17,17,18,18,19,19,20,20,21,21,22,22,23,23,24,24,25,25,26,26,27,27,28,28,30,30],"right_children":[2,4,6,8,10,12,14,16,18,20,22,24,26,28,30,32,34,36,38,40,42,44,46,48,50,52,54,56,58,-1,60,-1,-1,-1,-1,-1,-1,-1,-1,-1,-1,-1,-1,-1,-1,-1,-1,-1,-1,-1,-1,-1,-1,-1,-1,-1,-1,-1,-1,-1,-1],"split_conditions":[7.659052E-1,-1.268686E0,9.8624796E-1,-3.222927E0,4.913374E2,8.6469513E-1,1.8499868E1,1.0642025E1,1.1399896E-1,3.0354175E-1,2.2672199E-1,5.869531E2,1.4135324E1,2.050049E0,3.1751804E0,4.8408928E1,2.7066052E2,2.2131357E2,3.950661E2,-1.2416838E1,2.5298426E0,-9.024396E-1,-2.8204393E0,4.904686E0,7.210954E1,2.7090476E0,3.2770382E1,1.0578668E0,1.117486E0,1.020212E-1,5.9073376E1,-1.7363279E-1,-8.911985E-2,-7.96007E-2,-2.561627E-1,-7.6597586E-2,-1.927263E-1,-2.5527775E-2,-9.726122E-2,-1.1954159E-1,3.1914033E-3,6.512948E-2,-3.676084E-3,-1.7937425E-1,-2.5364887E-2,3.498676E-2,-6.0906466E-2,7.029114E-2,2.4227738E-2,2.0318927E-1,1.1113389E-2,8.395042E-2,1.4958808E-1,2.1774061E-1,7.2534025E-2,8.773593E-2,1.6506536E-1,1.8134423E-1,2.8292572E-1,4.227521E-1,1.2126022E-1],"split_indices":[8,2,8,2,5,8,7,7,8,2,8,5,1,2,2,0,5,5,5,1,1,1,1,1,0,2,1,8,8,0,9,0,0,0,0,0,0,0,0,0,0,0,0,0,0,0,0,0,0,0,0,0,0,0,0,0,0,0,0,0,0],"split_type":[0,0,0,0,0,0,0,0,0,0,0,0,0,0,0,0,0,0,0,0,0,0,0,0,0,0,0,0,0,0,0,0,0,0,0,0,0,0,0,0,0,0,0,0,0,0,0,0,0,0,0,0,0,0,0,0,0,0,0,0,0],"sum_hessian":[1.24E3,8.63E2,3.77E2,3.14E2,5.49E2,2.77E2,1E2,8.4E1,2.3E2,3.73E2,1.76E2,1.48E2,1.29E2,8.5E1,1.5E1,4E1,4.4E1,6.1E1,1.69E2,2.53E2,1.2E2,1.5E1,1.61E2,1.42E2,6E0,1.03E2,2.6E1,4.9E1,3.6E1,1E0,1.4E1,2.2E1,1.8E1,3E0,4.1E1,2.2E1,3.9E1,4.5E1,1.24E2,6E0,2.47E2,8.5E1,3.5E1,1.3E1,2E0,4.1E1,1.2E2,8.9E1,5.3E1,4E0,2E0,8.1E1,2.2E1,2.2E1,4E0,2.4E1,2.5E1,2.9E1,7E0,1.3E1,1E0],"tree_param":{"num_deleted":"0","num_feature":"11","num_nodes":"61","size_leaf_vector":"1"}},{"base_weights":[9.212196E-2,-4.780321E0,1.1748043E1,-1.3583193E1,-1.8341619E0,8.788328E0,2.128984E1,-4.6979094E0,-1.8054913E1,2.135438E0,-5.285181E0,5.980987E0,1.1760538E1,1.6791021E1,3.507145E1,-2.1678526E0,-6.794261E0,-2.3074944E1,-1.4500699E1,6.233553E0,1.524261E0,-4.2563133E0,-1.6455954E1,2.0437075E1,5.531654E0,9.97656E0,2.203322E1,1.17407635E-1,1.9397343E1,1.6164123E-1,3.7457203E1,-9.912024E-4,-3.3857796E-2,-8.724942E-2,-4.4273324E-2,-2.9649457E-1,-1.7195784E-1,-1.2788156E-1,-2.2516942E-1,2.742531E-2,9.412897E-2,5.154668E-3,3.2105677E-2,-7.2159566E-2,6.8790145E-4,-4.858169E-2,-1.9270237E-1,5.1532343E-2,2.3813944E-1,5.0103027E-2,1.4870524E-1,1.0188236E-1,-7.18313E-2,2.3264718E-1,-6.6874264E-4,1.2178001E-1,2.2572084E-1,1.5936704E-1,3.9264154E-1],"categories":[],"categories_nodes":[],"categories_segments":[],"categories_sizes":[],"default_left":[0,0,0,0,0,0,0,0,0,0,0,0,0,0,0,0,0,0,0,0,0,0,0,0,0,0,0,0,0,0,0,0,0,0,0,0,0,0,0,0,0,0,0,0,0,0,0,0,0,0,0,0,0,0,0,0,0,0,0],"id":4,"left_children":[1,3,5,7,9,11,13,15,17,19,21,23,25,27,29,31,33,35,37,39,41,43,45,47,49,51,53,-1,55,-1,57,-1,-1,-1,-1,-1,-1,-1,-1,-1,-1,-1,-1,-1,-1,-1,-1,-1,-1,-1,-1,-1,-1,-1,-1,-1,-1,-1,-1],"loss_changes":[6.9740945E4,2.2434504E4,1.0036137E4,8.537133E3,8.915743E3,2.249295E3,4.6811914E3,3.777588E2,2.2346836E3,7.4941455E2,3.9296074E3,8.28812E2,2.2359004E3,6.409922E2,2.9670312E2,8.784918E1,1.4416309E2,1.7320059E3,9.0639844E2,4.0705212E2,4.4914624E2,4.096741E3,8.5292676E2,8.3727295E1,6.1686816E2,4.9453125E2,5.1866406E2,0E0,6.877383E2,0E0,3.533008E1,0E0,0E0,0E0,0E0,0E0,0E0,0E0,0E0,0E0,0E0,0E0,0E0,0E0,0E0,0E0,0E0,0E0,0E0,0E0,0E0,0E0,0E0,0E0,0E0,0E0,0E0,0E0,0E0],"parents":[2147483647,0,0,1,1,2,2,3,3,4,4,5,5,6,6,7,7,8,8,9,9,10,10,11,11,12,12,13,13,14,14,15,15,16,16,17,17,18,18,19,19,20,20,21,21,22,22,23,23,24,24,25,25,26,26,28,28,30,30],"right_children":[2,4,6,8,10,12,14,16,18,20,22,24,26,28,30,32,34,36,38,40,42,44,46,48,50,52,54,-1,56,-1,58,-1,-1,-1,-1,-1,-1,-1,-1,-1,-1,-1,-1,-1,-1,-1,-1,-1,-1,-1,-1,-1,-1,-1,-1,-1,-1,-1,-1],"split_conditions":[7.659052E-1,2.1252145E-1,1.0110949E0,3.0210825E2,3.837065E2,8.6469513E-1,1.5883117E1,2.1161609E2,8.643134E-2,-3.1748643E0,6.084466E2,5.1691914E1,2.1587994E1,2.655922E2,2.7120413E2,1.8253094E2,1.0935958E-1,-6.424755E0,5.596695E2,3.5620964E-1,6.0807E-1,5.6494796E-1,3.6532693E0,5.078835E1,5.869531E2,3.2770382E1,5.6237328E1,1.17407635E-1,6.604981E1,1.6164123E-1,2.5480082E1,-9.912024E-4,-3.3857796E-2,-8.724942E-2,-4.4273324E-2,-2.9649457E-1,-1.7195784E-1,-1.2788156E-1,-2.2516942E-1,2.742531E-2,9.412897E-2,5.154668E-3,3.2105677E-2,-7.2159566E-2,6.8790145E-4,-4.858169E-2,-1.9270237E-1,5.1532343E-2,2.3813944E-1,5.0103027E-2,1.4870524E-1,1.0188236E-1,-7.18313E-2,2.3264718E-1,-6.6874264E-4,1.2178001E-1,2.2572084E-1,1.5936704E-1,3.9264154E-1],"split_indices":[8,8,8,6,5,8,7,6,8,1,6,0,7,5,4,4,8,1,5,8,8,8,1,0,5,1,10,0,0,0,10,0,0,0,0,0,0,0,0,0,0,0,0,0,0,0,0,0,0,0,0,0,0,0,0,0,0,0,0],"split_type":[0,0,0,0,0,0,0,0,0,0,0,0,0,0,0,0,0,0,0,0,0,0,0,0,0,0,0,0,0,0,0,0,0,0,0,0,0,0,0,0,0,0,0,0,0,0,0,0,0,0,0,0,0,0,0,0,0,0,0],"sum_hessian":[1.226E3,8.65E2,3.61E2,2.16E2,6.49E2,2.77E2,8.4E1,7.3E1,1.43E2,3.02E2,3.47E2,1.44E2,1.33E2,6.5E1,1.9E1,3.4E1,3.9E1,5.7E1,8.6E1,3.8E1,2.64E2,3.19E2,2.8E1,3E0,1.41E2,1.15E2,1.8E1,2.4E1,4.1E1,3E0,1.6E1,1.3E1,2.1E1,2E1,1.9E1,2.5E1,3.2E1,7.3E1,1.3E1,1.9E1,1.9E1,1.66E2,9.8E1,1.89E2,1.3E2,6E0,2.2E1,1E0,2E0,1.35E2,6E0,1.14E2,1E0,1.7E1,1E0,1.4E1,2.7E1,2E0,1.4E1],"tree_param":{"num_deleted":"0","num_feature":"11","num_nodes":"59","size_leaf_vector":"1"}},{"base_weights":[-2.9210398E-2,-4.845213E0,1.1676249E1,-1.1198336E1,-4.2768363E-2,8.609643E0,1.9145817E1,-1.9199385E1,-8.754783E0,2.2555661E0,-3.7552433E0,7.607419E0,1.6399672E1,1.6142855E1,4.361296E1,-3.1701803E-1,-1.6643684E1,-1.2631316E1,-5.470296E0,1.8013822E0,1.4643798E1,-1.4923218E0,-8.155615E0,7.064805E0,1.5058599E1,-1.6451626E0,1.7797258E1,1.2455253E1,2.144353E1,4.7568637E-1,1.720827E-1,-1.4202225E-1,-2.4911512E-1,-5.5058293E-2,-1.6252288E-1,-2.0371921E-2,-8.194143E-2,2.1301197E-2,-7.178526E-2,1.7605592E-1,5.0592583E-2,-6.964796E-2,3.0127937E-2,-7.0779815E-2,-2.3089439E-1,5.393109E-2,9.016909E-2,1.7155245E-1,-7.1472146E-2,2.2155384E-2,-4.6832822E-2,2.3914719E-1,1.0408566E-1,9.408728E-2,1.5717477E-1,1.2223732E-1,2.279025E-1],"categories":[],"categories_nodes":[],"categories_segments":[],"categories_sizes":[],"default_left":[0,0,0,0,0,0,0,0,0,0,0,0,0,0,0,0,0,0,0,0,0,0,0,0,0,0,0,0,0,0,0,0,0,0,0,0,0,0,0,0,0,0,0,0,0,0,0,0,0,0,0,0,0,0,0,0,0],"id":5,"left_children":[1,3,5,7,9,11,13,15,17,19,21,23,25,27,29,-1,31,33,35,37,39,41,43,45,47,49,51,53,55,-1,-1,-1,-1,-1,-1,-1,-1,-1,-1,-1,-1,-1,-1,-1,-1,-1,-1,-1,-1,-1,-1,-1,-1,-1,-1,-1,-1],"loss_changes":[7.097446E4,2.72149E4,8.24175E3,7.339492E3,4.3515176E3,1.9207656E3,7.084199E3,2.3161328E3,3.6996973E3,1.7459801E3,1.9295796E3,8.397031E2,7.606372E2,1.6094043E3,3.3035742E2,0E0,1.1803027E3,3.3936797E3,1.4982095E3,9.156616E2,2.2319043E2,3.2260205E3,8.9872363E2,6.6930176E2,8.209778E2,4.5563812E1,9.714834E2,4.384873E2,1.9324414E2,0E0,0E0,0E0,0E0,0E0,0E0,0E0,0E0,0E0,0E0,0E0,0E0,0E0,0E0,0E0,0E0,0E0,0E0,0E0,0E0,0E0,0E0,0E0,0E0,0E0,0E0,0E0,0E0],"parents":[2147483647,0,0,1,1,2,2,3,3,4,4,5,5,6,6,7,7,8,8,9,9,10,10,11,11,12,12,13,13,14,14,16,16,17,17,18,18,19,19,20,20,21,21,22,22,23,23,24,24,25,25,26,26,27,27,28,28],"right_children":[2,4,6,8,10,12,14,16,18,20,22,24,26,28,30,-1,32,34,36,38,40,42,44,46,48,50,52,54,56,-1,-1,-1,-1,-1,-1,-1,-1,-1,-1,-1,-1,-1,-1,-1,-1,-1,-1,-1,-1,-1,-1,-1,-1,-1,-1,-1,-1],"split_conditions":[7.659052E-1,-9.3533754E-1,9.8624796E-1,-3.222927E0,4.50555E2,4.6903124E0,1.8499868E1,-5.869085E-2,2.1252145E-1,4.0075928E2,2.1913073E0,5.753957E2,8.035097E-1,2.050049E0,3.3319008E1,-3.1701803E-1,5.710457E2,2.153184E2,4.7441776E2,9.901803E0,-4.352746E0,4.644301E-1,4.8184982E1,8.6469513E-1,3.2770382E1,5.5417603E1,4.6079968E2,1.0662879E0,2.5642877E2,4.7568637E-1,1.720827E-1,-1.4202225E-1,-2.4911512E-1,-5.5058293E-2,-1.6252288E-1,-2.0371921E-2,-8.194143E-2,2.1301197E-2,-7.178526E-2,1.7605592E-1,5.0592583E-2,-6.964796E-2,3.0127937E-2,-7.0779815E-2,-2.3089439E-1,5.393109E-2,9.016909E-2,1.7155245E-1,-7.1472146E-2,2.2155384E-2,-4.6832822E-2,2.3914719E-1,1.0408566E-1,9.408728E-2,1.5717477E-1,1.2223732E-1,2.279025E-1],"split_indices":[8,2,8,2,5,2,7,8,8,4,1,5,8,2,7,0,5,4,5,1,1,8,10,8,1,0,5,8,4,0,0,0,0,0,0,0,0,0,0,0,0,0,0,0,0,0,0,0,0,0,0,0,0,0,0,0,0],"split_type":[0,0,0,0,0,0,0,0,0,0,0,0,0,0,0,0,0,0,0,0,0,0,0,0,0,0,0,0,0,0,0,0,0,0,0,0,0,0,0,0,0,0,0,0,0,0,0,0,0,0,0,0,0,0,0,0,0],"sum_hessian":[1.257E3,8.91E2,3.66E2,3.83E2,5.08E2,2.61E2,1.05E2,8.8E1,2.95E2,3.14E2,1.94E2,2.33E2,2.8E1,9.5E1,1E1,1.3E1,7.5E1,1.34E2,1.61E2,3.04E2,1E1,1.29E2,6.5E1,2.19E2,1.4E1,2E0,2.6E1,5.8E1,3.7E1,8E0,2E0,6E1,1.5E1,4.6E1,8.8E1,7.2E1,8.9E1,2.94E2,1E1,7E0,3E0,5.8E1,7.1E1,6.2E1,3E0,1.2E2,9.9E1,1.3E1,1E0,1E0,1E0,1.3E1,1.3E1,3.2E1,2.6E1,6E0,3.1E1],"tree_param":{"num_deleted":"0","num_feature":"11","num_nodes":"57","size_leaf_vector":"1"}},{"base_weights":[1.1885806E-1,-5.149134E0,1.0810254E1,-1.3536564E1,-2.0716987E0,6.5855956E0,1.6130991E1,-4.6912613E0,-1.7354382E1,2.220559E0,-5.3004384E0,2.1666564E-1,6.219567E0,1.3780054E1,3.0061552E1,-5.601241E0,-4.1048315E-1,-2.2596462E1,-1.5120094E1,7.0548306E0,1.5353307E0,-1.9683015E-1,-7.3827405E0,5.7271376E0,1.4441893E1,9.993598E0,1.654936E1,1.1353075E-1,3.308445E1,-3.549425E-2,-9.4100714E-2,7.903143E-3,-1.03198355E-2,-2.598613E-1,-1.62566E-1,-1.364317E-1,-2.1553455E-1,4.836052E-2,8.511877E-2,2.726573E-2,1.7545198E-3,-4.0602658E-2,7.204514E-2,-1.000233E-1,-3.0682683E-2,5.27066E-2,1.8407674E-1,1.1665751E-2,2.093373E-1,1.2870954E-2,1.023793E-1,1.01276904E-1,1.986417E-1,2.2757266E-1,3.8933393E-1],"categories":[],"categories_nodes":[],"categories_segments":[],"categories_sizes":[],"default_left":[0,0,0,0,0,0,0,0,0,0,0,0,0,0,0,0,0,0,0,0,0,0,0,0,0,0,0,0,0,0,0,0,0,0,0,0,0,0,0,0,0,0,0,0,0,0,0,0,0,0,0,0,0,0,0],"id":6,"left_children":[1,3,5,7,9,11,13,15,17,19,21,-1,23,25,27,29,31,33,35,37,39,41,43,45,47,49,51,-1,53,-1,-1,-1,-1,-1,-1,-1,-1,-1,-1,-1,-1,-1,-1,-1,-1,-1,-1,-1,-1,-1,-1,-1,-1,-1,-1],"loss_changes":[6.927564E4,2.1240855E4,9.019953E3,7.381703E3,8.382354E3,1.1238193E3,5.4479688E3,2.6258936E2,1.4620352E3,8.504391E2,3.6649492E3,0E0,8.242461E2,1.4599219E3,1.0382363E3,4.0424072E2,1.0517442E1,5.231133E2,7.6061914E2,6.228784E1,3.70489E2,2.9173088E3,2.738336E3,1.1359048E3,1.0097534E3,1.3147754E2,1.6720449E3,0E0,3.8244727E2,0E0,0E0,0E0,0E0,0E0,0E0,0E0,0E0,0E0,0E0,0E0,0E0,0E0,0E0,0E0,0E0,0E0,0E0,0E0,0E0,0E0,0E0,0E0,0E0,0E0,0E0],"parents":[2147483647,0,0,1,1,2,2,3,3,4,4,5,5,6,6,7,7,8,8,9,9,10,10,12,12,13,13,14,14,15,15,16,16,17,17,18,18,19,19,20,20,21,21,22,22,23,23,24,24,25,25,26,26,28,28],"right_children":[2,4,6,8,10,12,14,16,18,20,22,-1,24,26,28,30,32,34,36,38,40,42,44,46,48,50,52,-1,54,-1,-1,-1,-1,-1,-1,-1,-1,-1,-1,-1,-1,-1,-1,-1,-1,-1,-1,-1,-1,-1,-1,-1,-1,-1,-1],"split_conditions":[7.453526E-1,2.1252145E-1,9.094017E-1,3.0210825E2,2.8025787E2,-8.366746E0,1.906692E1,4.1760426E1,3.7164073E-2,-3.8011892E0,-8.5015804E-1,2.1666564E-1,7.539842E1,2.5642877E2,2.7120413E2,1.9592838E2,1.0731963E0,3.5087837E1,5.596695E2,4.1575086E-1,1.1805103E0,4.8138878E1,5.833335E-1,5.869531E2,2.1587994E1,4.8096633E0,7.383214E0,1.1353075E-1,9.630888E-1,-3.549425E-2,-9.4100714E-2,7.903143E-3,-1.03198355E-2,-2.598613E-1,-1.62566E-1,-1.364317E-1,-2.1553455E-1,4.836052E-2,8.511877E-2,2.726573E-2,1.7545198E-3,-4.0602658E-2,7.204514E-2,-1.000233E-1,-3.0682683E-2,5.27066E-2,1.8407674E-1,1.1665751E-2,2.093373E-1,1.2870954E-2,1.023793E-1,1.01276904E-1,1.986417E-1,2.2757266E-1,3.8933393E-1],"split_indices":[8,8,8,6,4,3,7,0,8,3,3,0,0,4,4,4,3,0,5,8,3,0,8,5,7,7,7,0,8,0,0,0,0,0,0,0,0,0,0,0,0,0,0,0,0,0,0,0,0,0,0,0,0,0,0],"split_type":[0,0,0,0,0,0,0,0,0,0,0,0,0,0,0,0,0,0,0,0,0,0,0,0,0,0,0,0,0,0,0,0,0,0,0,0,0,0,0,0,0,0,0,0,0,0,0,0,0,0,0,0,0,0,0],"sum_hessian":[1.228E3,8.23E2,4.05E2,2.2E2,6.03E2,2.27E2,1.78E2,6.7E1,1.53E2,2.59E2,3.44E2,4E0,2.23E2,1.54E2,2.4E1,5.5E1,1.2E1,4.3E1,1.1E2,3.1E1,2.28E2,1E2,2.44E2,2.12E2,1.1E1,6.7E1,8.7E1,4E0,2E1,3.7E1,1.8E1,4E0,8E0,2.6E1,1.7E1,9.2E1,1.8E1,1.4E1,1.7E1,1.21E2,1.07E2,6.6E1,3.4E1,1.51E2,9.3E1,2.06E2,6E0,4E0,7E0,2E0,6.5E1,3.1E1,5.6E1,9E0,1.1E1],"tree_param":{"num_deleted":"0","num_feature":"11","num_nodes":"55","size_leaf_vector":"1"}},{"base_weights":[-1.2867029E-1,-1.0944602E1,4.481956E0,-1.9303825E1,-8.534911E0,2.21022E0,1.5254302E1,-2.9636171E1,-1.6145578E1,-3.6239347E0,-1.1153978E1,-8.238528E-1,5.0661154E0,7.2439566E0,1.9148096E1,-1.0539469E-1,-3.1364542E1,-1.112996E1,-1.9640371E1,-5.770614E0,-1.275976E0,-1.6780249E1,-8.879373E0,1.5135875E0,-5.2407947E0,5.5678635E0,-7.1797786E0,8.157734E0,-9.689963E-1,1.6871262E1,2.7525717E1,-3.253333E-1,-6.9163665E-2,-1.2662907E-1,-4.503143E-2,-8.404606E-2,-2.1543919E-1,-3.224374E-2,-8.9516066E-2,-2.0173721E-2,1.8913465E-2,-1.7555313E-2,-1.733503E-1,-1.9525721E-3,-1.0202413E-1,2.1361649E-2,-6.466508E-3,6.337962E-2,-6.1166175E-2,4.283624E-2,1.1360273E-1,-4.5321174E-2,-1.6259718E-1,9.032483E-2,2.8736144E-2,-2.9135883E-2,7.3169684E-3,1.5627992E-1,3.0014664E-1,1.4112025E-1,2.9997137E-1],"categories":[],"categories_nodes":[],"categories_segments":[],"categories_sizes":[],"default_left":[0,0,0,0,0,0,0,0,0,0,0,0,0,0,0,0,0,0,0,0,0,0,0,0,0,0,0,0,0,0,0,0,0,0,0,0,0,0,0,0,0,0,0,0,0,0,0,0,0,0,0,0,0,0,0,0,0,0,0,0,0],"id":7,"left_children":[1,3,5,7,9,11,13,15,17,19,21,23,25,27,29,-1,31,33,35,37,39,41,43,45,47,49,51,53,55,57,59,-1,-1,-1,-1,-1,-1,-1,-1,-1,-1,-1,-1,-1,-1,-1,-1,-1,-1,-1,-1,-1,-1,-1,-1,-1,-1,-1,-1,-1,-1],"loss_changes":[6.1736043E4,7.288207E3,2.1207912E4,2.1973418E3,3.67675E3,6.2256396E3,4.571082E3,2.6354492E2,9.207578E2,5.0674902E2,2.2569395E3,3.6111265E3,2.3133877E3,3.906504E2,1.462125E3,0E0,2.3218262E2,2.375752E2,6.102803E2,4.0041394E2,1.2122759E2,4.1134668E2,1.5605723E3,3.0936713E2,1.2658208E3,2.5995635E3,2.869181E2,1.8666895E2,2.1974792E1,8.7087695E2,2.3969629E2,0E0,0E0,0E0,0E0,0E0,0E0,0E0,0E0,0E0,0E0,0E0,0E0,0E0,0E0,0E0,0E0,0E0,0E0,0E0,0E0,0E0,0E0,0E0,0E0,0E0,0E0,0E0,0E0,0E0,0E0],"parents":[2147483647,0,0,1,1,2,2,3,3,4,4,5,5,6,6,7,7,8,8,9,9,10,10,11,11,12,12,13,13,14,14,16,16,17,17,18,18,19,19,20,20,21,21,22,22,23,23,24,24,25,25,26,26,27,27,28,28,29,29,30,30],"right_children":[2,4,6,8,10,12,14,16,18,20,22,24,26,28,30,-1,32,34,36,38,40,42,44,46,48,50,52,54,56,58,60,-1,-1,-1,-1,-1,-1,-1,-1,-1,-1,-1,-1,-1,-1,-1,-1,-1,-1,-1,-1,-1,-1,-1,-1,-1,-1,-1,-1,-1,-1],"split_conditions":[-9.547568E-1,-3.222927E0,6.85147E1,3.2337105E1,3.950661E2,3.9273247E-1,1.2801489E0,-1.8332106E1,5.2711285E2,4.284541E1,3.9883034E1,4.2689703E2,1.477547E1,4.8968773E1,7.960118E1,-1.0539469E-1,6.237724E2,2.6442842E1,8.605865E0,2.1426765E2,3.6186375E1,-3.1128652E0,5.7273445E0,3.8136752E0,3.673077E0,2.788509E0,4.6074203E1,1.5226442E1,7.322362E1,8.590269E0,3.066147E0,-3.253333E-1,-6.9163665E-2,-1.2662907E-1,-4.503143E-2,-8.404606E-2,-2.1543919E-1,-3.224374E-2,-8.9516066E-2,-2.0173721E-2,1.8913465E-2,-1.7555313E-2,-1.733503E-1,-1.9525721E-3,-1.0202413E-1,2.1361649E-2,-6.466508E-3,6.337962E-2,-6.1166175E-2,4.283624E-2,1.1360273E-1,-4.5321174E-2,-1.6259718E-1,9.032483E-2,2.8736144E-2,-2.9135883E-2,7.3169684E-3,1.5627992E-1,3.0014664E-1,1.4112025E-1,2.9997137E-1],"split_indices":[2,2,0,0,5,2,2,1,6,0,0,6,1,10,0,0,6,9,7,5,9,2,7,1,7,2,9,7,0,2,2,0,0,0,0,0,0,0,0,0,0,0,0,0,0,0,0,0,0,0,0,0,0,0,0,0,0,0,0,0,0],"split_type":[0,0,0,0,0,0,0,0,0,0,0,0,0,0,0,0,0,0,0,0,0,0,0,0,0,0,0,0,0,0,0,0,0,0,0,0,0,0,0,0,0,0,0,0,0,0,0,0,0,0,0,0,0,0,0,0,0,0,0,0,0],"sum_hessian":[1.236E3,3.69E2,8.67E2,8.1E1,2.88E2,7.17E2,1.5E2,1.7E1,6.4E1,1.01E2,1.87E2,3.48E2,3.69E2,5E1,1E2,2E0,1.5E1,2.8E1,3.6E1,5.2E1,4.9E1,5.2E1,1.35E2,2.28E2,1.2E2,3.55E2,1.4E1,4.5E1,5E0,8.1E1,1.9E1,1.4E1,1E0,2.2E1,6E0,6E0,3E1,3E1,2.2E1,4E1,9E0,2E0,5E1,1.8E1,1.17E2,1.77E2,5.1E1,8E0,1.12E2,2.92E2,6.3E1,1.2E1,2E0,3.8E1,7E0,2E0,3E0,7.6E1,5E0,4E0,1.5E1],"tree_param":{"num_deleted":"0","num_feature":"11","num_nodes":"61","size_leaf_vector":"1"}},{"base_weights":[-4.1255116E-4,-4.634089E0,1.0819849E1,-1.0390337E1,-5.4095256E-1,7.872774E0,1.8698225E1,-1.7036833E1,-8.575111E0,2.0982425E0,-3.7425041E0,6.897817E0,1.6428022E1,1.3747749E1,2.8788368E1,-1.0320778E1,-1.9413494E1,-4.5943446E0,-1.08495865E1,6.871082E0,1.4050146E0,-7.6118336E0,-1.8086629E0,5.7000766E0,1.0126944E1,-1.8050766E-1,1.851161E1,1.0109781E-1,1.6801725E1,2.1837992E1,3.7266764E-1,-1.3367444E-1,-4.434765E-2,-2.2069337E-2,-2.0021158E-1,-9.0951994E-2,-2.9979212E-2,-1.5060563E-1,-7.2521135E-2,4.4955123E-2,9.121949E-2,1.06695516E-4,2.7107451E-2,-8.8139206E-2,2.3163624E-2,2.391676E-2,-6.6256E-2,5.911732E-2,-5.143606E-2,9.38438E-2,2.2345124E-1,2.9355628E-2,-4.7643594E-2,1.934267E-1,-3.0139135E-3,9.869402E-2,1.8429913E-1,4.8148755E-2,2.2480531E-1],"categories":[],"categories_nodes":[],"categories_segments":[],"categories_sizes":[],"default_left":[0,0,0,0,0,0,0,0,0,0,0,0,0,0,0,0,0,0,0,0,0,0,0,0,0,0,0,0,0,0,0,0,0,0,0,0,0,0,0,0,0,0,0,0,0,0,0,0,0,0,0,0,0,0,0,0,0,0,0],"id":8,"left_children":[1,3,5,7,9,11,13,15,17,19,21,23,25,27,29,31,33,35,37,39,41,43,45,47,49,51,53,-1,55,57,-1,-1,-1,-1,-1,-1,-1,-1,-1,-1,-1,-1,-1,-1,-1,-1,-1,-1,-1,-1,-1,-1,-1,-1,-1,-1,-1,-1,-1],"loss_changes":[6.1869793E4,2.0351176E4,8.44352E3,4.185203E3,4.283309E3,2.1470918E3,4.599324E3,1.0127344E3,2.5215332E3,9.1015515E2,1.6997642E3,8.8985156E2,9.376841E2,5.967471E2,1.0718652E3,3.3523853E2,5.3088086E2,7.2718677E2,2.6175781E3,1.4614038E2,4.44207E2,9.274429E2,3.131693E3,4.458247E2,3.8003516E2,7.11205E1,3.8106445E2,0E0,2.2444238E2,1.1051953E2,0E0,0E0,0E0,0E0,0E0,0E0,0E0,0E0,0E0,0E0,0E0,0E0,0E0,0E0,0E0,0E0,0E0,0E0,0E0,0E0,0E0,0E0,0E0,0E0,0E0,0E0,0E0,0E0,0E0],"parents":[2147483647,0,0,1,1,2,2,3,3,4,4,5,5,6,6,7,7,8,8,9,9,10,10,11,11,12,12,13,13,14,14,15,15,16,16,17,17,18,18,19,19,20,20,21,21,22,22,23,23,24,24,25,25,26,26,28,28,29,29],"right_children":[2,4,6,8,10,12,14,16,18,20,22,24,26,28,30,32,34,36,38,40,42,44,46,48,50,52,54,-1,56,58,-1,-1,-1,-1,-1,-1,-1,-1,-1,-1,-1,-1,-1,-1,-1,-1,-1,-1,-1,-1,-1,-1,-1,-1,-1,-1,-1,-1,-1],"split_conditions":[7.6751566E-1,-1.049077E0,9.8624796E-1,-3.222927E0,4.015106E2,4.6903124E0,3.1751804E0,9.4246645E0,4.2395163E2,-3.5716398E0,4.809756E-1,9.147283E-1,8.035097E-1,2.629219E2,2.9754398E1,1.9815183E-1,2.650985E2,6.890258E-2,2.2672199E-1,4.644301E-1,-1.3648905E-1,3.00418E1,3.6648347E0,2.2447866E1,2.172462E1,5.609966E1,5.8074142E1,1.0109781E-1,6.567712E1,2.5254736E2,3.7266764E-1,-1.3367444E-1,-4.434765E-2,-2.2069337E-2,-2.0021158E-1,-9.0951994E-2,-2.9979212E-2,-1.5060563E-1,-7.2521135E-2,4.4955123E-2,9.121949E-2,1.06695516E-4,2.7107451E-2,-8.8139206E-2,2.3163624E-2,2.391676E-2,-6.6256E-2,5.911732E-2,-5.143606E-2,9.38438E-2,2.2345124E-1,2.9355628E-2,-4.7643594E-2,1.934267E-1,-3.0139135E-3,9.869402E-2,1.8429913E-1,4.8148755E-2,2.2480531E-1],"split_indices":[8,2,8,2,6,2,2,7,6,3,8,8,8,5,9,8,5,8,8,8,2,9,3,3,3,0,9,0,0,5,0,0,0,0,0,0,0,0,0,0,0,0,0,0,0,0,0,0,0,0,0,0,0,0,0,0,0,0,0],"split_type":[0,0,0,0,0,0,0,0,0,0,0,0,0,0,0,0,0,0,0,0,0,0,0,0,0,0,0,0,0,0,0,0,0,0,0,0,0,0,0,0,0,0,0,0,0,0,0,0,0,0,0,0,0,0,0,0,0,0,0],"sum_hessian":[1.232E3,8.63E2,3.69E2,3.58E2,5.05E2,2.7E2,9.9E1,7.5E1,2.83E2,2.77E2,2.28E2,2.44E2,2.6E1,6.8E1,3.1E1,2.1E1,5.4E1,1.04E2,1.79E2,3.4E1,2.43E2,7.5E1,1.53E2,1.8E2,6.4E1,3E0,2.3E1,3.3E1,3.5E1,1.9E1,1.2E1,1.3E1,8E0,2E0,5.2E1,2.6E1,7.8E1,8.1E1,9.8E1,1.8E1,1.6E1,1.18E2,1.25E2,6.7E1,8E0,8.2E1,7.1E1,1.77E2,3E0,6.2E1,2E0,2E0,1E0,2.2E1,1E0,8E0,2.7E1,1E0,1.8E1],"tree_param":{"num_deleted":"0","num_feature":"11","num_nodes":"59","size_leaf_vector":"1"}},{"base_weights":[4.414749E-2,-4.79879E0,1.1274408E1,-1.0946569E1,-2.8983337E-1,8.273981E0,1.8571962E1,-1.8656105E1,-8.63042E0,2.0056E0,-4.159484E0,6.1859837E0,1.2832878E1,1.3390597E1,2.8418802E1,-2.7112112E1,-1.4962766E1,-4.574056E0,-1.13720455E1,5.320099E-1,4.745112E0,4.8986465E-1,-6.079749E0,4.214721E0,7.6761417E0,6.9152126E0,1.6113932E1,1.1546163E1,1.7927906E1,2.0831257E-1,3.660128E1,-9.677284E-2,-2.9141977E-1,-1.24784954E-1,-2.3859973E-1,-7.394329E-2,-1.5745794E-2,-1.6720091E-1,-8.596486E-2,1.2434402E-2,-5.4099783E-2,9.633583E-2,3.0180102E-2,-1.1245819E-1,3.030451E-2,-8.412565E-2,-2.5975369E-2,7.130536E-2,2.0615462E-2,6.954371E-2,1.3693176E-1,1.8618703E-1,4.4917803E-2,1.2967041E-1,2.3011793E-1,1.22145325E-1,1.3790274E-3,3.7545662E-2,1.8506727E-1,7.541884E-2,3.803578E-1],"categories":[],"categories_nodes":[],"categories_segments":[],"categories_sizes":[],"default_left":[0,0,0,0,0,0,0,0,0,0,0,0,0,0,0,0,0,0,0,0,0,0,0,0,0,0,0,0,0,0,0,0,0,0,0,0,0,0,0,0,0,0,0,0,0,0,0,0,0,0,0,0,0,0,0,0,0,0,0,0,0],"id":9,"left_children":[1,3,5,7,9,11,13,15,17,19,21,23,25,27,29,31,33,35,37,39,41,43,45,47,49,51,53,55,57,-1,59,-1,-1,-1,-1,-1,-1,-1,-1,-1,-1,-1,-1,-1,-1,-1,-1,-1,-1,-1,-1,-1,-1,-1,-1,-1,-1,-1,-1,-1,-1],"loss_changes":[6.678751E4,2.3780646E4,7.9477734E3,6.320875E3,4.414075E3,2.433623E3,5.0786016E3,2.1864922E3,3.0729922E3,1.2569938E3,1.6546545E3,5.052085E2,1.4806934E3,3.9555273E2,1.4726094E3,5.673535E2,1.0284482E3,9.611814E2,2.3351855E3,8.690982E2,8.9120044E2,1.6739335E3,1.0423086E3,4.93839E2,3.5209326E2,7.9561E2,8.3036035E2,4.10062E2,8.6387695E1,0E0,3.8010938E2,0E0,0E0,0E0,0E0,0E0,0E0,0E0,0E0,0E0,0E0,0E0,0E0,0E0,0E0,0E0,0E0,0E0,0E0,0E0,0E0,0E0,0E0,0E0,0E0,0E0,0E0,0E0,0E0,0E0,0E0],"parents":[2147483647,0,0,1,1,2,2,3,3,4,4,5,5,6,6,7,7,8,8,9,9,10,10,11,11,12,12,13,13,14,14,15,15,16,16,17,17,18,18,19,19,20,20,21,21,22,22,23,23,24,24,25,25,26,26,27,27,28,28,30,30],"right_children":[2,4,6,8,10,12,14,16,18,20,22,24,26,28,30,32,34,36,38,40,42,44,46,48,50,52,54,56,58,-1,60,-1,-1,-1,-1,-1,-1,-1,-1,-1,-1,-1,-1,-1,-1,-1,-1,-1,-1,-1,-1,-1,-1,-1,-1,-1,-1,-1,-1,-1,-1],"split_conditions":[7.659052E-1,-9.3533754E-1,9.8624796E-1,-3.222927E0,4.9596887E2,2.4473166E0,3.1751804E0,-2.7013185E0,4.64575E2,3.0354175E-1,-3.156557E0,8.3808166E-1,8.5865164E-1,2.050049E0,2.8781027E1,-5.2175856E0,5.710457E2,2.1073166E-1,1.7960565E-1,2.8025787E2,-4.1541414E0,2.49567E-1,6.611943E-1,2.4007444E0,1.5609748E1,3.9722412E2,4.117764E1,4.7947415E2,1.1892008E1,2.0831257E-1,-1.3366678E1,-9.677284E-2,-2.9141977E-1,-1.24784954E-1,-2.3859973E-1,-7.394329E-2,-1.5745794E-2,-1.6720091E-1,-8.596486E-2,1.2434402E-2,-5.4099783E-2,9.633583E-2,3.0180102E-2,-1.1245819E-1,3.030451E-2,-8.412565E-2,-2.5975369E-2,7.130536E-2,2.0615462E-2,6.954371E-2,1.3693176E-1,1.8618703E-1,4.4917803E-2,1.2967041E-1,2.3011793E-1,1.22145325E-1,1.3790274E-3,3.7545662E-2,1.8506727E-1,7.541884E-2,3.803578E-1],"split_indices":[8,2,8,2,6,2,2,3,6,2,3,8,8,2,10,2,5,8,8,4,3,8,8,3,7,6,10,4,10,0,3,0,0,0,0,0,0,0,0,0,0,0,0,0,0,0,0,0,0,0,0,0,0,0,0,0,0,0,0,0,0],"split_type":[0,0,0,0,0,0,0,0,0,0,0,0,0,0,0,0,0,0,0,0,0,0,0,0,0,0,0,0,0,0,0,0,0,0,0,0,0,0,0,0,0,0,0,0,0,0,0,0,0,0,0,0,0,0,0,0,0,0,0,0,0],"sum_hessian":[1.226E3,8.57E2,3.69E2,3.62E2,4.95E2,2.63E2,1.06E2,8.2E1,2.8E2,3.11E2,1.84E2,1.82E2,8.1E1,7.1E1,3.5E1,2.3E1,5.9E1,1.14E2,1.66E2,2.03E2,1.08E2,5.4E1,1.3E2,8E1,1.02E2,3E1,5.1E1,5.3E1,1.8E1,2E1,1.5E1,3E0,2E1,4.8E1,1.1E1,5.8E1,5.6E1,5.5E1,1.11E2,1.82E2,2.1E1,2.7E1,8.1E1,9E0,4.5E1,7.7E1,5.3E1,3.3E1,4.7E1,9.3E1,9E0,4E0,2.6E1,3.7E1,1.4E1,5E1,3E0,1E0,1.7E1,1E0,1.4E1],"tree_param":{"num_deleted":"0","num_feature":"11","num_nodes":"61","size_leaf_vector":"1"}},{"base_weights":[2.720079E-1,-4.547194E0,1.1529135E1,-1.0435918E1,8.673487E-3,9.159826E0,2.1882107E1,-1.444815E1,-6.474079E0,1.8687396E0,-3.7692788E0,7.8412127E0,1.7362677E1,1.240597E1,2.8610365E1,-5.205924E0,-1.7447697E1,-5.3075113E0,-1.6755247E1,2.9144645E0,-1.3431462E0,-1.3581774E1,-2.66812E0,6.026007E0,1.1021304E1,1.1642527E1,2.0214973E1,5.2366E0,1.5728825E1,2.1068657E1,3.544013E1,-8.960415E-3,-6.2031057E-2,-2.848155E-1,-1.5691134E-1,-5.693825E-3,-6.919203E-2,-5.707513E-2,-2.2724132E-1,1.006373E-2,4.4900186E-2,4.204558E-3,-5.090014E-2,1.8862357E-2,-1.4738724E-1,4.6252776E-2,-4.594216E-2,7.2840996E-2,2.3973946E-2,7.938725E-2,1.4984317E-1,6.0558207E-2,1.3631408E-1,1.2366063E-1,2.1951343E-1,7.217218E-2,-7.2847925E-2,-1.7858844E-2,1.7774118E-1,2.2977301E-1,1.9576836E-2,1.409168E-1,3.7122786E-1],"categories":[],"categories_nodes":[],"categories_segments":[],"categories_sizes":[],"default_left":[0,0,0,0,0,0,0,0,0,0,0,0,0,0,0,0,0,0,0,0,0,0,0,0,0,0,0,0,0,0,0,0,0,0,0,0,0,0,0,0,0,0,0,0,0,0,0,0,0,0,0,0,0,0,0,0,0,0,0,0,0,0,0],"id":10,"left_children":[1,3,5,7,9,11,13,15,17,19,21,23,25,27,29,31,33,35,37,39,41,43,45,47,49,51,53,55,57,59,61,-1,-1,-1,-1,-1,-1,-1,-1,-1,-1,-1,-1,-1,-1,-1,-1,-1,-1,-1,-1,-1,-1,-1,-1,-1,-1,-1,-1,-1,-1,-1,-1],"loss_changes":[6.6780375E4,2.3126035E4,8.850906E3,5.883289E3,3.42931E3,3.1304043E3,3.9805996E3,5.065551E3,2.2018647E3,1.1022255E3,1.7033857E3,1.4459854E3,4.3358496E2,6.323179E2,1.2621367E3,1.9643542E2,2.2665195E3,1.3171582E3,1.1232119E3,7.380376E2,5.373868E2,3.1413208E2,2.0722266E3,7.5404443E2,1.029376E3,9.52312E1,8.28916E1,3.2537708E2,7.4819727E2,7.210156E2,1.5940039E2,0E0,0E0,0E0,0E0,0E0,0E0,0E0,0E0,0E0,0E0,0E0,0E0,0E0,0E0,0E0,0E0,0E0,0E0,0E0,0E0,0E0,0E0,0E0,0E0,0E0,0E0,0E0,0E0,0E0,0E0,0E0,0E0],"parents":[2147483647,0,0,1,1,2,2,3,3,4,4,5,5,6,6,7,7,8,8,9,9,10,10,11,11,12,12,13,13,14,14,15,15,16,16,17,17,18,18,19,19,20,20,21,21,22,22,23,23,24,24,25,25,26,26,27,27,28,28,29,29,30,30],"right_children":[2,4,6,8,10,12,14,16,18,20,22,24,26,28,30,32,34,36,38,40,42,44,46,48,50,52,54,56,58,60,62,-1,-1,-1,-1,-1,-1,-1,-1,-1,-1,-1,-1,-1,-1,-1,-1,-1,-1,-1,-1,-1,-1,-1,-1,-1,-1,-1,-1,-1,-1,-1,-1],"split_conditions":[7.704539E-1,-9.3533754E-1,3.9965994E0,2.1252145E-1,5.0622647E2,1.0662879E0,9.398055E-1,3.0210825E2,6.10604E2,3.4445827E0,2.4166101E-1,6.794857E1,1.3890833E0,4.6903124E0,1.7485254E1,1.9602713E2,2.9842302E1,4.0257535E2,8.753874E0,4.306261E-1,2.9142114E2,-8.3722E0,-3.629422E0,4.904686E0,2.7066052E2,1.117486E0,1.0960042E0,7.539842E1,8.035097E-1,5.8132544E2,2.6259363E1,-8.960415E-3,-6.2031057E-2,-2.848155E-1,-1.5691134E-1,-5.693825E-3,-6.919203E-2,-5.707513E-2,-2.2724132E-1,1.006373E-2,4.4900186E-2,4.204558E-3,-5.090014E-2,1.8862357E-2,-1.4738724E-1,4.6252776E-2,-4.594216E-2,7.2840996E-2,2.3973946E-2,7.938725E-2,1.4984317E-1,6.0558207E-2,1.3631408E-1,1.2366063E-1,2.1951343E-1,7.217218E-2,-7.2847925E-2,-1.7858844E-2,1.7774118E-1,2.2977301E-1,1.9576836E-2,1.409168E-1,3.7122786E-1],"split_indices":[8,2,2,8,6,8,8,6,6,1,8,0,2,2,7,5,0,6,7,8,5,1,1,1,5,8,8,0,8,5,9,0,0,0,0,0,0,0,0,0,0,0,0,0,0,0,0,0,0,0,0,0,0,0,0,0,0,0,0,0,0,0,0],"split_type":[0,0,0,0,0,0,0,0,0,0,0,0,0,0,0,0,0,0,0,0,0,0,0,0,0,0,0,0,0,0,0,0,0,0,0,0,0,0,0,0,0,0,0,0,0,0,0,0,0,0,0,0,0,0,0,0,0,0,0,0,0,0,0],"sum_hessian":[1.229E3,8.61E2,3.68E2,3.75E2,4.86E2,3.01E2,6.7E1,1.85E2,1.9E2,3.26E2,1.6E2,2.61E2,4E1,2.9E1,3.8E1,4.6E1,1.39E2,1.72E2,1.8E1,2.46E2,8E1,1.5E1,1.45E2,1.68E2,9.3E1,1.5E1,2.5E1,1E1,1.9E1,2E1,1.8E1,9E0,3.7E1,1.7E1,1.22E2,4.4E1,1.28E2,7E0,1.1E1,1.12E2,1.34E2,5.5E1,2.5E1,1E0,1.4E1,3E1,1.15E2,1.24E2,4.4E1,5.4E1,3.9E1,5E0,1E1,6E0,1.9E1,9E0,1E0,2E0,1.7E1,1.8E1,2E0,2E0,1.6E1],"tree_param":{"num_deleted":"0","num_feature":"11","num_nodes":"63","size_leaf_vector":"1"}},{"base_weights":[1.1467677E-1,-4.627687E0,1.1149975E1,-1.0917749E1,-1.5056367E-1,9.385061E0,2.3377083E1,-1.7451422E1,-8.3176775E0,1.9273608E0,-3.5947511E0,7.724217E0,1.8582384E1,-1.6668237E0,2.4553326E1,-6.6229296E0,-2.0740522E1,-6.910534E0,-1.7085745E1,1.5335665E0,1.6847519E1,-3.1671846E0,-2.2684808E-1,6.016732E0,1.0300736E1,1.25234E1,2.267936E1,2.2538308E-2,-4.7540665E-2,3.241192E1,2.021224E1,-1.8496258E-2,-7.444053E-2,-1.8205357E-1,-2.8038827E-1,-2.2487184E-2,-8.451087E-2,-5.9173234E-2,-2.2655474E-1,1.8057243E-3,4.1102104E-2,1.9662468E-1,5.6017794E-2,-7.465069E-2,-1.0272158E-2,6.1388362E-2,-7.248369E-2,8.832587E-2,1.3414274E-1,6.846342E-2,1.3790396E-1,1.250013E-1,2.434875E-1,3.3775058E-1,7.345536E-2,1.2912317E-1,2.4767058E-1],"categories":[],"categories_nodes":[],"categories_segments":[],"categories_sizes":[],"default_left":[0,0,0,0,0,0,0,0,0,0,0,0,0,0,0,0,0,0,0,0,0,0,0,0,0,0,0,0,0,0,0,0,0,0,0,0,0,0,0,0,0,0,0,0,0,0,0,0,0,0,0,0,0,0,0,0,0],"id":11,"left_children":[1,3,5,7,9,11,13,15,17,19,21,23,25,27,29,31,33,35,37,39,41,43,-1,45,47,49,51,-1,-1,53,55,-1,-1,-1,-1,-1,-1,-1,-1,-1,-1,-1,-1,-1,-1,-1,-1,-1,-1,-1,-1,-1,-1,-1,-1,-1,-1],"loss_changes":[6.4421676E4,2.4245307E4,7.765129E3,5.9365586E3,3.613936E3,4.8209453E3,1.3959785E3,3.4598516E3,3.0651152E3,1.8249369E3,1.4789851E3,1.1566465E3,9.323281E2,4.70269E1,8.459336E2,8.421802E1,9.1423047E2,1.5897129E3,2.0431182E3,1.0730023E3,1.4310498E2,1.7122341E3,0E0,3.182295E2,3.7977246E2,6.3828125E1,1.7144531E2,0E0,0E0,2.3027051E2,7.1094434E2,0E0,0E0,0E0,0E0,0E0,0E0,0E0,0E0,0E0,0E0,0E0,0E0,0E0,0E0,0E0,0E0,0E0,0E0,0E0,0E0,0E0,0E0,0E0,0E0,0E0,0E0],"parents":[2147483647,0,0,1,1,2,2,3,3,4,4,5,5,6,6,7,7,8,8,9,9,10,10,11,11,12,12,13,13,14,14,15,15,16,16,17,17,18,18,19,19,20,20,21,21,23,23,24,24,25,25,26,26,29,29,30,30],"right_children":[2,4,6,8,10,12,14,16,18,20,22,24,26,28,30,32,34,36,38,40,42,44,-1,46,48,50,52,-1,-1,54,56,-1,-1,-1,-1,-1,-1,-1,-1,-1,-1,-1,-1,-1,-1,-1,-1,-1,-1,-1,-1,-1,-1,-1,-1,-1,-1],"split_conditions":[7.659052E-1,-9.9416566E-1,4.8087335E0,1.20193146E-1,4.9596887E2,1.0662879E0,8.035097E-1,2.3023483E2,6.084466E2,3.1537054E0,4.8184982E1,9.147283E-1,1.4310493E0,5.609966E1,4.8382327E2,1.9626985E2,1.3364551E1,4.0257535E2,2.7611578E1,3.0354175E-1,4.4597308E2,4.644301E-1,-2.2684808E-1,5.9562256E2,2.1977813E0,1.1059353E0,1.4413607E1,2.2538308E-2,-4.7540665E-2,5.6237328E1,7.386523E1,-1.8496258E-2,-7.444053E-2,-1.8205357E-1,-2.8038827E-1,-2.2487184E-2,-8.451087E-2,-5.9173234E-2,-2.2655474E-1,1.8057243E-3,4.1102104E-2,1.9662468E-1,5.6017794E-2,-7.465069E-2,-1.0272158E-2,6.1388362E-2,-7.248369E-2,8.832587E-2,1.3414274E-1,6.846342E-2,1.3790396E-1,1.250013E-1,2.434875E-1,3.3775058E-1,7.345536E-2,1.2912317E-1,2.4767058E-1],"split_indices":[8,2,2,8,6,8,8,4,6,2,10,8,2,0,6,5,7,6,10,2,5,8,0,4,2,8,10,0,0,10,0,0,0,0,0,0,0,0,0,0,0,0,0,0,0,0,0,0,0,0,0,0,0,0,0,0,0],"split_type":[0,0,0,0,0,0,0,0,0,0,0,0,0,0,0,0,0,0,0,0,0,0,0,0,0,0,0,0,0,0,0,0,0,0,0,0,0,0,0,0,0,0,0,0,0,0,0,0,0,0,0,0,0,0,0,0,0],"sum_hessian":[1.229E3,8.6E2,3.69E2,3.57E2,5.03E2,3.24E2,4.5E1,1E2,2.57E2,3.14E2,1.89E2,2.76E2,4.8E1,2E0,4.3E1,2.4E1,7.6E1,2.23E2,3.4E1,3.07E2,7E0,1.86E2,3E0,1.68E2,1.08E2,2.1E1,2.7E1,1E0,1E0,1.3E1,3E1,4E0,2E1,5.9E1,1.7E1,5.6E1,1.67E2,1.2E1,2.2E1,2.02E2,1.05E2,5E0,2E0,6.1E1,1.25E2,1.67E2,1E0,7.6E1,3.2E1,5E0,1.6E1,5E0,2.2E1,1.2E1,1E0,1.3E1,1.7E1],"tree_param":{"num_deleted":"0","num_feature":"11","num_nodes":"57","size_leaf_vector":"1"}},{"base_weights":[1.5735815E-1,-4.1564436E0,1.1502956E1,-9.937809E0,-9.159138E-2,8.63719E0,1.9303768E1,-1.6512735E1,-7.379237E0,1.9260269E0,-3.6087396E0,6.58143E0,1.305967E1,1.3505678E1,2.9390755E1,-7.0027976E0,-2.0194727E1,-3.1045673E0,-9.854315E0,3.0972648E-1,4.512213E0,-8.815376E0,-1.699894E0,6.1956763E0,1.8226469E1,7.882082E0,1.6131453E1,1.1278344E1,1.8786741E1,2.5632425E1,4.455924E-1,-1.2977975E-2,-8.374972E-2,-2.3309511E-1,-1.466507E-1,-1.4823483E-1,-2.4551025E-2,-8.267452E-2,-1.9498996E-1,9.553515E-3,-5.4234162E-2,9.848711E-2,2.9195067E-2,1.3226312E-2,-9.7063266E-2,2.5151769E-2,-6.9584765E-2,2.779873E-2,7.0736706E-2,2.4038091E-1,-2.5100091E-2,9.0450056E-2,2.6027724E-2,2.1379656E-1,1.1257679E-1,1.2188211E-1,1.743736E-2,9.4809815E-2,2.0204918E-1,1.8611723E-1,3.2301563E-1],"categories":[],"categories_nodes":[],"categories_segments":[],"categories_sizes":[],"default_left":[0,0,0,0,0,0,0,0,0,0,0,0,0,0,0,0,0,0,0,0,0,0,0,0,0,0,0,0,0,0,0,0,0,0,0,0,0,0,0,0,0,0,0,0,0,0,0,0,0,0,0,0,0,0,0,0,0,0,0,0,0],"id":12,"left_children":[1,3,5,7,9,11,13,15,17,19,21,23,25,27,29,31,33,35,37,39,41,43,45,47,49,51,53,55,57,59,-1,-1,-1,-1,-1,-1,-1,-1,-1,-1,-1,-1,-1,-1,-1,-1,-1,-1,-1,-1,-1,-1,-1,-1,-1,-1,-1,-1,-1,-1,-1],"loss_changes":[6.0051516E4,2.0890943E4,7.3893633E3,6.0519766E3,3.7182957E3,2.1778477E3,4.8667305E3,3.430162E3,2.7837246E3,1.3905607E3,1.8833003E3,6.5971875E2,1.1133955E3,4.8211523E2,6.8210156E2,2.2397864E2,9.1549414E2,7.170981E2,2.409998E3,7.6768225E2,1.0591792E3,4.7349268E2,3.1428088E3,4.8417773E2,6.628988E2,1.667804E2,9.8708496E2,3.6045752E2,1.9592285E1,7.098281E2,0E0,0E0,0E0,0E0,0E0,0E0,0E0,0E0,0E0,0E0,0E0,0E0,0E0,0E0,0E0,0E0,0E0,0E0,0E0,0E0,0E0,0E0,0E0,0E0,0E0,0E0,0E0,0E0,0E0,0E0,0E0],"parents":[2147483647,0,0,1,1,2,2,3,3,4,4,5,5,6,6,7,7,8,8,9,9,10,10,11,11,12,12,13,13,14,14,15,15,16,16,17,17,18,18,19,19,20,20,21,21,22,22,23,23,24,24,25,25,26,26,27,27,28,28,29,29],"right_children":[2,4,6,8,10,12,14,16,18,20,22,24,26,28,30,32,34,36,38,40,42,44,46,48,50,52,54,56,58,60,-1,-1,-1,-1,-1,-1,-1,-1,-1,-1,-1,-1,-1,-1,-1,-1,-1,-1,-1,-1,-1,-1,-1,-1,-1,-1,-1,-1,-1,-1,-1],"split_conditions":[7.8160787E-1,-9.547568E-1,9.8624796E-1,1.1399896E-1,4.9596887E2,2.4473166E0,3.1751804E0,3.0210825E2,4.448407E2,3.0354175E-1,4.4856706E-1,5.6519446E2,8.6469513E-1,1.117486E0,8.590269E0,1.9626985E2,3.630116E1,-1.7095629E1,1.2859255E1,2.981517E2,-3.1748643E0,-8.3722E0,2.1913073E0,8.082479E-1,2.314145E0,7.2399475E1,4.357752E2,5.471706E2,1.9773666E2,7.960118E1,4.455924E-1,-1.2977975E-2,-8.374972E-2,-2.3309511E-1,-1.466507E-1,-1.4823483E-1,-2.4551025E-2,-8.267452E-2,-1.9498996E-1,9.553515E-3,-5.4234162E-2,9.848711E-2,2.9195067E-2,1.3226312E-2,-9.7063266E-2,2.5151769E-2,-6.9584765E-2,2.779873E-2,7.0736706E-2,2.4038091E-1,-2.5100091E-2,9.0450056E-2,2.6027724E-2,2.1379656E-1,1.1257679E-1,1.2188211E-1,1.743736E-2,9.4809815E-2,2.0204918E-1,1.8611723E-1,3.2301563E-1],"split_indices":[8,2,8,8,6,2,2,6,5,2,8,5,8,8,2,5,0,1,3,5,1,1,1,8,2,0,4,5,4,0,0,0,0,0,0,0,0,0,0,0,0,0,0,0,0,0,0,0,0,0,0,0,0,0,0,0,0,0,0,0,0],"split_type":[0,0,0,0,0,0,0,0,0,0,0,0,0,0,0,0,0,0,0,0,0,0,0,0,0,0,0,0,0,0,0,0,0,0,0,0,0,0,0,0,0,0,0,0,0,0,0,0,0,0,0,0,0,0,0,0,0,0,0,0,0],"sum_hessian":[1.225E3,8.88E2,3.37E2,3.66E2,5.22E2,2.48E2,8.9E1,1.01E2,2.65E2,3.32E2,1.9E2,1.71E2,7.7E1,5.8E1,3.1E1,2.9E1,7.2E1,9.8E1,1.67E2,2.05E2,1.27E2,5E1,1.4E2,1.67E2,4E0,3E1,4.7E1,4.3E1,1.5E1,2.7E1,4E0,6E0,2.3E1,4.4E1,2.8E1,4E0,9.4E1,1.45E2,2.2E1,1.85E2,2E1,2.8E1,9.9E1,4E0,4.6E1,7.8E1,6.2E1,3.5E1,1.32E2,3E0,1E0,2.4E1,6E0,2.1E1,2.6E1,3.9E1,4E0,3E0,1.2E1,1.5E1,1.2E1],"tree_param":{"num_deleted":"0","num_feature":"11","num_nodes":"61","size_leaf_vector":"1"}},{"base_weights":[-2.3853248E-1,-5.5640903E0,5.732679E0,8.471988E-2,-9.480622E0,2.7691138E0,1.5153972E1,-7.234636E0,1.5417389E0,-1.9134222E1,-6.5431495E0,4.9361825E0,-1.0042521E1,8.692023E0,1.8647364E1,-3.2189867E0,-1.3659293E1,8.9802685E0,4.4447064E-1,-2.647863E1,-1.6657553E1,6.7119217E-1,-9.459133E0,8.614299E0,1.5276345E0,-2.1604485E1,-7.547538E0,1.1495209E1,5.9788632E0,3.8369486E-1,1.72839E1,1.10075055E-2,-4.1647967E-2,-5.5963346E-3,-1.4443044E-1,1.6338818E-1,6.766453E-2,1.5729083E-2,-3.4271706E-2,-2.8871685E-1,-1.3046509E-1,-1.8970568E-1,-1.2733267E-1,-4.1003928E-2,5.0132655E-2,-7.394665E-2,-1.5708838E-1,2.7214834E-1,7.834421E-2,-1.1041791E-2,3.6053468E-2,-1.1940954E-2,-2.600745E-1,-6.4645454E-2,-1.9739552E-1,1.4464855E-1,9.106331E-2,6.3776374E-2,1.9918105E-2,1.4689414E-1,2.8585166E-1],"categories":[],"categories_nodes":[],"categories_segments":[],"categories_sizes":[],"default_left":[0,0,0,0,0,0,0,0,0,0,0,0,0,0,0,0,0,0,0,0,0,0,0,0,0,0,0,0,0,0,0,0,0,0,0,0,0,0,0,0,0,0,0,0,0,0,0,0,0,0,0,0,0,0,0,0,0,0,0,0,0],"id":13,"left_children":[1,3,5,7,9,11,13,15,17,19,21,23,25,27,29,31,33,35,37,39,41,43,45,47,49,51,53,55,57,-1,59,-1,-1,-1,-1,-1,-1,-1,-1,-1,-1,-1,-1,-1,-1,-1,-1,-1,-1,-1,-1,-1,-1,-1,-1,-1,-1,-1,-1,-1,-1],"loss_changes":[3.9527535E4,1.4536107E4,1.631952E4,2.8905525E3,1.0877391E4,1.2459943E4,2.998293E3,1.1169937E3,1.8406345E3,1.1959961E3,6.296384E3,4.7885244E3,1.7119888E3,3.191516E2,1.7569629E3,1.2306824E2,1.664541E2,3.6186768E2,8.7043396E2,2.983457E2,3.9382812E2,1.8230721E3,2.6320312E3,2.455915E3,1.0976115E3,9.5747314E2,5.986045E2,3.8537354E1,3.1815002E1,0E0,2.101705E3,0E0,0E0,0E0,0E0,0E0,0E0,0E0,0E0,0E0,0E0,0E0,0E0,0E0,0E0,0E0,0E0,0E0,0E0,0E0,0E0,0E0,0E0,0E0,0E0,0E0,0E0,0E0,0E0,0E0,0E0],"parents":[2147483647,0,0,1,1,2,2,3,3,4,4,5,5,6,6,7,7,8,8,9,9,10,10,11,11,12,12,13,13,14,14,15,15,16,16,17,17,18,18,19,19,20,20,21,21,22,22,23,23,24,24,25,25,26,26,27,27,28,28,30,30],"right_children":[2,4,6,8,10,12,14,16,18,20,22,24,26,28,30,32,34,36,38,40,42,44,46,48,50,52,54,56,58,-1,60,-1,-1,-1,-1,-1,-1,-1,-1,-1,-1,-1,-1,-1,-1,-1,-1,-1,-1,-1,-1,-1,-1,-1,-1,-1,-1,-1,-1,-1,-1],"split_conditions":[5.4053745E1,3.837065E2,6.86718E1,3.7120773E1,3.9688583E1,1.0755468E1,2.7066052E2,2.1565103E2,-4.1541414E0,3.1122961E1,-3.0854511E0,2.9374335E0,5.703083E1,3.0249973E1,2.2293475E0,1.9344817E2,-1.4908324E1,1.21942215E1,1.526038E0,3.0843903E1,2.3005999E1,4.5046066E1,5.596794E0,-8.366746E0,6.0554016E1,1.0572913E1,5.8890244E1,2.7710354E0,7.154686E0,3.8369486E-1,8.169588E1,1.10075055E-2,-4.1647967E-2,-5.5963346E-3,-1.4443044E-1,1.6338818E-1,6.766453E-2,1.5729083E-2,-3.4271706E-2,-2.8871685E-1,-1.3046509E-1,-1.8970568E-1,-1.2733267E-1,-4.1003928E-2,5.0132655E-2,-7.394665E-2,-1.5708838E-1,2.7214834E-1,7.834421E-2,-1.1041791E-2,3.6053468E-2,-1.1940954E-2,-2.600745E-1,-6.4645454E-2,-1.9739552E-1,1.4464855E-1,9.106331E-2,6.3776374E-2,1.9918105E-2,1.4689414E-1,2.8585166E-1],"split_indices":[0,5,0,0,0,3,5,5,3,0,3,3,0,9,3,5,1,7,3,9,9,0,3,3,0,1,10,3,3,0,0,0,0,0,0,0,0,0,0,0,0,0,0,0,0,0,0,0,0,0,0,0,0,0,0,0,0,0,0,0,0],"split_type":[0,0,0,0,0,0,0,0,0,0,0,0,0,0,0,0,0,0,0,0,0,0,0,0,0,0,0,0,0,0,0,0,0,0,0,0,0,0,0,0,0,0,0,0,0,0,0,0,0,0,0,0,0,0,0,0,0,0,0,0,0],"sum_hessian":[1.241E3,6.56E2,5.85E2,2.69E2,3.87E2,4.46E2,1.39E2,4.4E1,2.25E2,8.9E1,2.98E2,3.82E2,6.4E1,5E1,8.9E1,2.8E1,1.6E1,2.8E1,1.97E2,2E1,6.9E1,8.6E1,2.12E2,1.83E2,1.99E2,1E1,5.4E1,2.3E1,2.7E1,4E0,8.5E1,5E0,2.3E1,1E0,1.5E1,5E0,2.3E1,1.53E2,4.4E1,1.6E1,4E0,4.1E1,2.8E1,4.1E1,4.5E1,1.61E2,5.1E1,6E0,1.77E2,8.8E1,1.11E2,2E0,8E0,5.1E1,3E0,8E0,1.5E1,2.4E1,3E0,7.1E1,1.4E1],"tree_param":{"num_deleted":"0","num_feature":"11","num_nodes":"61","size_leaf_vector":"1"}},{"base_weights":[1.1530618E-1,-4.3664494E0,1.0637906E1,-1.1341499E1,-5.311033E-1,8.502083E0,2.0741344E1,-1.49444685E1,-6.7808867E0,1.5633212E0,-4.049599E0,5.854353E0,1.1667548E1,1.3785969E1,2.8420544E1,-5.436883E0,-1.721148E1,-5.4593596E0,-1.5140933E1,-5.1127855E-2,4.83478E0,-1.4111938E1,-3.189979E0,8.973407E0,4.989532E0,9.288927E0,1.5884389E1,2.6224741E1,9.739677E0,1.9132826E1,3.7005043E1,-1.0457586E-2,-6.3404895E-2,-2.4827203E-1,-1.4429499E-1,-1.29782185E-2,-6.9751225E-2,-5.2665E-2,-1.9639274E-1,2.4868518E-3,-9.809162E-2,3.9721046E-2,1.7577188E-1,1.243486E-2,-1.6394392E-1,2.8593976E-2,-4.954963E-2,2.2289874E-2,1.0579904E-1,4.469629E-2,1.2554304E-1,8.550308E-2,1.579099E-1,1.0505289E-1,2.0031884E-1,2.793443E-1,7.128464E-2,1.1450568E-1,-3.388313E-2,9.010588E-2,2.0775604E-1,3.9351684E-1,1.5283458E-1],"categories":[],"categories_nodes":[],"categories_segments":[],"categories_sizes":[],"default_left":[0,0,0,0,0,0,0,0,0,0,0,0,0,0,0,0,0,0,0,0,0,0,0,0,0,0,0,0,0,0,0,0,0,0,0,0,0,0,0,0,0,0,0,0,0,0,0,0,0,0,0,0,0,0,0,0,0,0,0,0,0,0,0],"id":14,"left_children":[1,3,5,7,9,11,13,15,17,19,21,23,25,27,29,31,33,35,37,39,41,43,45,47,49,51,53,55,57,59,61,-1,-1,-1,-1,-1,-1,-1,-1,-1,-1,-1,-1,-1,-1,-1,-1,-1,-1,-1,-1,-1,-1,-1,-1,-1,-1,-1,-1,-1,-1,-1,-1],"loss_changes":[5.7628465E4,2.2920207E4,7.700047E3,4.893914E3,4.0888813E3,2.4712266E3,2.9731328E3,3.5490195E3,1.4198721E3,1.8382454E3,1.7454893E3,4.0569678E2,1.2265977E3,1.5061611E3,1.6041719E3,1.2827625E2,2.5231602E3,7.415884E2,6.961045E2,6.870265E2,1.1943264E3,5.8115454E2,2.0641626E3,3.5563892E2,4.669685E2,2.9721143E2,8.604297E2,6.206006E1,6.676941E2,7.885693E1,1.1218945E2,0E0,0E0,0E0,0E0,0E0,0E0,0E0,0E0,0E0,0E0,0E0,0E0,0E0,0E0,0E0,0E0,0E0,0E0,0E0,0E0,0E0,0E0,0E0,0E0,0E0,0E0,0E0,0E0,0E0,0E0,0E0,0E0],"parents":[2147483647,0,0,1,1,2,2,3,3,4,4,5,5,6,6,7,7,8,8,9,9,10,10,11,11,12,12,13,13,14,14,15,15,16,16,17,17,18,18,19,19,20,20,21,21,22,22,23,23,24,24,25,25,26,26,27,27,28,28,29,29,30,30],"right_children":[2,4,6,8,10,12,14,16,18,20,22,24,26,28,30,32,34,36,38,40,42,44,46,48,50,52,54,56,58,60,62,-1,-1,-1,-1,-1,-1,-1,-1,-1,-1,-1,-1,-1,-1,-1,-1,-1,-1,-1,-1,-1,-1,-1,-1,-1,-1,-1,-1,-1,-1,-1,-1],"split_conditions":[7.659052E-1,-1.268686E0,3.9965994E0,2.1252145E-1,4.9596887E2,9.147283E-1,9.758205E-1,3.0210825E2,1.0572913E1,3.0354175E-1,2.2672199E-1,1.1134176E0,7.158434E1,4.8600467E2,1.7485254E1,2.1161609E2,1.4751465E-2,4.2395163E2,3.758516E2,2.0754513E1,3.1537054E0,4.963849E2,-2.9298038E0,6.9300895E0,5.753957E2,2.7090476E0,2.5642877E2,7.923839E1,2.7878939E1,6.1045406E1,3.3319008E1,-1.0457586E-2,-6.3404895E-2,-2.4827203E-1,-1.4429499E-1,-1.29782185E-2,-6.9751225E-2,-5.2665E-2,-1.9639274E-1,2.4868518E-3,-9.809162E-2,3.9721046E-2,1.7577188E-1,1.243486E-2,-1.6394392E-1,2.8593976E-2,-4.954963E-2,2.2289874E-2,1.0579904E-1,4.469629E-2,1.2554304E-1,8.550308E-2,1.579099E-1,1.0505289E-1,2.0031884E-1,2.793443E-1,7.128464E-2,1.1450568E-1,-3.388313E-2,9.010588E-2,2.0775604E-1,3.9351684E-1,1.5283458E-1],"split_indices":[8,2,2,8,6,8,8,6,1,2,8,1,0,6,7,6,8,6,4,7,2,4,1,7,5,2,4,0,7,0,7,0,0,0,0,0,0,0,0,0,0,0,0,0,0,0,0,0,0,0,0,0,0,0,0,0,0,0,0,0,0,0,0],"split_type":[0,0,0,0,0,0,0,0,0,0,0,0,0,0,0,0,0,0,0,0,0,0,0,0,0,0,0,0,0,0,0,0,0,0,0,0,0,0,0,0,0,0,0,0,0,0,0,0,0,0,0,0,0,0,0,0,0,0,0,0,0,0,0],"sum_hessian":[1.22E3,8.56E2,3.64E2,3.03E2,5.53E2,3.02E2,6.2E1,1.68E2,1.35E2,3.47E2,2.06E2,1.66E2,1.36E2,3.4E1,2.8E1,3.3E1,1.35E2,1.18E2,1.7E1,2.33E2,1.14E2,1.5E1,1.91E2,3.4E1,1.32E2,8.9E1,4.7E1,7E0,2.7E1,1.5E1,1.3E1,6E0,2.7E1,3.4E1,1.01E2,3.2E1,8.6E1,6E0,1.1E1,2.27E2,6E0,1.08E2,6E0,2E0,1.3E1,4.3E1,1.48E2,7E0,2.7E1,1.25E2,7E0,8.2E1,7E0,2.2E1,2.5E1,6E0,1E0,2.4E1,3E0,3E0,1.2E1,1.1E1,2E0],"tree_param":{"num_deleted":"0","num_feature":"11","num_nodes":"63","size_leaf_vector":"1"}},{"base_weights":[2.080316E-1,-9.896617E0,4.620505E0,-1.5166005E1,-7.45768E0,2.3694928E0,1.4858215E1,-5.263995E0,-1.8333357E1,-2.7822785E0,-9.806388E0,1.4050668E0,1.0477654E1,7.9977884E0,1.8991209E1,-1.7427634E0,-7.5146627E0,-2.4769808E1,-1.5715051E1,3.5835496E-1,-4.5833254E0,1.1196299E0,-1.0934182E1,2.4829962E0,-3.1766093E0,1.2299623E1,-6.318782E0,1.4331113E-1,6.7478323E0,1.6573313E1,2.9252415E1,-2.6085155E-2,4.3231305E-2,-4.1248906E-2,-9.8139904E-2,-2.5732112E-1,-9.456302E-2,-1.4275035E-1,-2.3249038E-1,-1.5599333E-2,4.926411E-2,-5.6163094E-4,-7.298018E-2,-6.765882E-3,7.1264856E-2,-1.17814116E-1,-7.083876E-3,2.7953573E-3,4.41908E-2,-7.961624E-2,-5.3189727E-3,1.9888851E-1,8.723093E-2,-1.3936925E-3,-9.998555E-2,4.8290152E-2,8.345662E-2,2.8067353E-1,1.370992E-1,1.3816954E-1,3.2938945E-1],"categories":[],"categories_nodes":[],"categories_segments":[],"categories_sizes":[],"default_left":[0,0,0,0,0,0,0,0,0,0,0,0,0,0,0,0,0,0,0,0,0,0,0,0,0,0,0,0,0,0,0,0,0,0,0,0,0,0,0,0,0,0,0,0,0,0,0,0,0,0,0,0,0,0,0,0,0,0,0,0,0],"id":15,"left_children":[1,3,5,7,9,11,13,15,17,19,21,23,25,27,29,31,33,35,37,39,41,43,45,47,49,51,53,-1,55,57,59,-1,-1,-1,-1,-1,-1,-1,-1,-1,-1,-1,-1,-1,-1,-1,-1,-1,-1,-1,-1,-1,-1,-1,-1,-1,-1,-1,-1,-1,-1],"loss_changes":[5.515463E4,4.7191367E3,1.9806723E4,3.6043457E3,2.816835E3,5.513822E3,4.243E3,2.2465735E2,1.110623E3,4.994082E2,2.1316777E3,3.134099E3,2.3729111E3,3.7827856E2,1.897E3,7.9547226E1,9.9813965E1,1.1033887E2,3.8415625E2,2.968589E2,6.878218E2,1.8824529E2,1.3431758E3,2.1872664E3,1.5270188E3,1.6722393E3,1.8051721E2,0E0,1.19127686E2,2.2481543E3,5.1224023E2,0E0,0E0,0E0,0E0,0E0,0E0,0E0,0E0,0E0,0E0,0E0,0E0,0E0,0E0,0E0,0E0,0E0,0E0,0E0,0E0,0E0,0E0,0E0,0E0,0E0,0E0,0E0,0E0,0E0,0E0],"parents":[2147483647,0,0,1,1,2,2,3,3,4,4,5,5,6,6,7,7,8,8,9,9,10,10,11,11,12,12,13,13,14,14,15,15,16,16,17,17,18,18,19,19,20,20,21,21,22,22,23,23,24,24,25,25,26,26,28,28,29,29,30,30],"right_children":[2,4,6,8,10,12,14,16,18,20,22,24,26,28,30,32,34,36,38,40,42,44,46,48,50,52,54,-1,56,58,60,-1,-1,-1,-1,-1,-1,-1,-1,-1,-1,-1,-1,-1,-1,-1,-1,-1,-1,-1,-1,-1,-1,-1,-1,-1,-1,-1,-1,-1,-1],"split_conditions":[-9.547568E-1,3.8846554E1,6.86718E1,2.217852E2,4.448407E2,2.788509E0,2.5798352E2,-4.799287E0,3.1122961E1,2.3433499E-1,5.475389E0,5.4096735E2,9.428226E0,2.7710354E0,8.169588E1,3.6963367E1,1.9592838E2,2.26169E1,5.2805457E2,4.778204E1,6.418559E0,5.162096E0,5.8391586E1,2.8952342E-1,5.066033E1,4.4597308E2,2.7521101E1,1.4331113E-1,7.976285E-1,4.1771946E0,1.5561652E1,-2.6085155E-2,4.3231305E-2,-4.1248906E-2,-9.8139904E-2,-2.5732112E-1,-9.456302E-2,-1.4275035E-1,-2.3249038E-1,-1.5599333E-2,4.926411E-2,-5.6163094E-4,-7.298018E-2,-6.765882E-3,7.1264856E-2,-1.17814116E-1,-7.083876E-3,2.7953573E-3,4.41908E-2,-7.961624E-2,-5.3189727E-3,1.9888851E-1,8.723093E-2,-1.3936925E-3,-9.998555E-2,4.8290152E-2,8.345662E-2,2.8067353E-1,1.370992E-1,1.3816954E-1,3.2938945E-1],"split_indices":[2,0,0,4,5,2,4,1,0,1,7,5,3,3,0,0,4,7,4,0,7,7,0,2,0,5,10,0,2,3,1,0,0,0,0,0,0,0,0,0,0,0,0,0,0,0,0,0,0,0,0,0,0,0,0,0,0,0,0,0,0],"split_type":[0,0,0,0,0,0,0,0,0,0,0,0,0,0,0,0,0,0,0,0,0,0,0,0,0,0,0,0,0,0,0,0,0,0,0,0,0,0,0,0,0,0,0,0,0,0,0,0,0,0,0,0,0,0,0,0,0,0,0,0,0],"sum_hessian":[1.235E3,3.75E2,8.6E2,1.17E2,2.58E2,7.06E2,1.54E2,2.9E1,8.8E1,8.7E1,1.71E2,6.32E2,7.4E1,5.9E1,9.5E1,1.2E1,1.7E1,2.3E1,6.5E1,3.2E1,5.5E1,1.6E1,1.55E2,5.12E2,1.2E2,6.7E1,7E0,8E0,5.1E1,7.9E1,1.6E1,1.1E1,1E0,8E0,9E0,2.1E1,2E0,5.7E1,8E0,2.3E1,9E0,2.1E1,3.4E1,1.3E1,3E0,1.43E2,1.2E1,2.4E2,2.72E2,4.2E1,7.8E1,2E1,4.7E1,3E0,4E0,2.5E1,2.6E1,1.4E1,6.5E1,4E0,1.2E1],"tree_param":{"num_deleted":"0","num_feature":"11","num_nodes":"61","size_leaf_vector":"1"}},{"base_weights":[-9.583453E-2,-3.8160164E0,1.2161522E1,-9.942052E0,2.566902E-1,8.947109E0,1.9026672E1,-1.589185E1,-7.249288E0,1.8710074E0,-2.8401277E0,7.5038643E0,1.3240782E1,1.0430238E1,2.3151052E1,-5.8910947E0,-1.915772E1,-2.5656528E0,-9.134191E0,2.9537613E0,-1.5544412E0,2.4481103E0,-4.693322E0,8.477977E0,4.0888147E0,1.3855764E0,1.4000339E1,6.3114524E0,1.3897133E1,2.00331E1,3.0473352E1,-1.1975889E-2,-7.267483E-2,-2.604522E-1,-1.5264916E-1,3.0832696E-3,-3.59758E-2,-7.712388E-2,-1.835076E-1,2.4096157E-2,1.1326298E-1,3.0518968E-3,-4.9345594E-2,-1.07587315E-1,4.117522E-2,-8.553799E-2,-7.1404222E-3,7.447265E-2,1.1890644E-1,6.744866E-2,1.9969298E-2,1.8769711E-2,-4.4304132E-4,1.057613E-1,1.7410094E-1,7.388479E-2,-4.92198E-2,-1.2540913E-2,1.499082E-1,1.7667238E-1,3.5426554E-1,3.1368726E-1,8.52135E-2],"categories":[],"categories_nodes":[],"categories_segments":[],"categories_sizes":[],"default_left":[0,0,0,0,0,0,0,0,0,0,0,0,0,0,0,0,0,0,0,0,0,0,0,0,0,0,0,0,0,0,0,0,0,0,0,0,0,0,0,0,0,0,0,0,0,0,0,0,0,0,0,0,0,0,0,0,0,0,0,0,0,0,0],"id":16,"left_children":[1,3,5,7,9,11,13,15,17,19,21,23,25,27,29,31,33,35,37,39,41,43,45,47,49,51,53,55,57,59,61,-1,-1,-1,-1,-1,-1,-1,-1,-1,-1,-1,-1,-1,-1,-1,-1,-1,-1,-1,-1,-1,-1,-1,-1,-1,-1,-1,-1,-1,-1,-1,-1],"loss_changes":[5.5814723E4,2.3430174E4,6.1189805E3,5.8928203E3,2.8298884E3,1.1152207E3,2.9494785E3,3.675838E3,2.2718955E3,1.3843088E3,1.9127157E3,4.610039E2,4.1282812E2,3.549502E2,7.593574E2,1.8509924E2,1.9350371E3,2.2650534E2,2.2827383E3,1.262022E3,5.6722546E2,1.16873E3,2.206009E3,3.1595703E2,1.809964E2,2.893701E0,3.412744E2,2.2994537E2,2.8393115E2,1.0129551E3,4.7180664E1,0E0,0E0,0E0,0E0,0E0,0E0,0E0,0E0,0E0,0E0,0E0,0E0,0E0,0E0,0E0,0E0,0E0,0E0,0E0,0E0,0E0,0E0,0E0,0E0,0E0,0E0,0E0,0E0,0E0,0E0,0E0,0E0],"parents":[2147483647,0,0,1,1,2,2,3,3,4,4,5,5,6,6,7,7,8,8,9,9,10,10,11,11,12,12,13,13,14,14,15,15,16,16,17,17,18,18,19,19,20,20,21,21,22,22,23,23,24,24,25,25,26,26,27,27,28,28,29,29,30,30],"right_children":[2,4,6,8,10,12,14,16,18,20,22,24,26,28,30,32,34,36,38,40,42,44,46,48,50,52,54,56,58,60,62,-1,-1,-1,-1,-1,-1,-1,-1,-1,-1,-1,-1,-1,-1,-1,-1,-1,-1,-1,-1,-1,-1,-1,-1,-1,-1,-1,-1,-1,-1,-1,-1],"split_conditions":[8.082479E-1,-9.3533754E-1,2.788509E0,1.20193146E-1,4.913374E2,7.158434E1,9.042783E-1,2.3023483E2,3.9275406E2,4.6690946E0,-3.0854511E0,5.091996E2,8.4714115E-1,1.6579592E1,3.9791054E1,1.9626985E2,-8.3722E0,2.5252922E1,1.3440984E1,2.788509E0,3.1551044E2,2.1252145E-1,6.421434E-1,1.0346234E0,1.7069615E0,8.163896E0,2.5642877E2,7.0648094E1,2.7378305E1,8.590269E0,6.353436E0,-1.1975889E-2,-7.267483E-2,-2.604522E-1,-1.5264916E-1,3.0832696E-3,-3.59758E-2,-7.712388E-2,-1.835076E-1,2.4096157E-2,1.1326298E-1,3.0518968E-3,-4.9345594E-2,-1.07587315E-1,4.117522E-2,-8.553799E-2,-7.1404222E-3,7.447265E-2,1.1890644E-1,6.744866E-2,1.9969298E-2,1.8769711E-2,-4.4304132E-4,1.057613E-1,1.7410094E-1,7.388479E-2,-4.92198E-2,-1.2540913E-2,1.499082E-1,1.7667238E-1,3.5426554E-1,3.1368726E-1,8.52135E-2],"split_indices":[8,2,2,8,5,0,8,4,5,3,3,4,8,1,9,5,1,9,3,2,4,8,8,8,3,1,4,0,9,2,2,0,0,0,0,0,0,0,0,0,0,0,0,0,0,0,0,0,0,0,0,0,0,0,0,0,0,0,0,0,0,0,0],"split_type":[0,0,0,0,0,0,0,0,0,0,0,0,0,0,0,0,0,0,0,0,0,0,0,0,0,0,0,0,0,0,0,0,0,0,0,0,0,0,0,0,0,0,0,0,0,0,0,0,0,0,0,0,0,0,0,0,0,0,0,0,0,0,0],"sum_hessian":[1.222E3,9.38E2,2.84E2,3.74E2,5.64E2,1.95E2,8.9E1,1.15E2,2.59E2,3.71E2,1.93E2,1.48E2,4.7E1,3E1,5.9E1,2.9E1,8.6E1,7.5E1,1.84E2,2.82E2,8.9E1,5E1,1.43E2,1.14E2,3.4E1,3E0,4.4E1,1.5E1,1.5E1,4.4E1,1.5E1,7E0,2.2E1,2.9E1,5.7E1,2E1,5.5E1,1.61E2,2.3E1,2.66E2,1.6E1,5.8E1,3.1E1,5E0,4.5E1,7.2E1,7.1E1,9E1,2.4E1,1.4E1,2E1,2E0,1E0,2.4E1,2E1,1.4E1,1E0,1E0,1.4E1,4E1,4E0,1.4E1,1E0],"tree_param":{"num_deleted":"0","num_feature":"11","num_nodes":"63","size_leaf_vector":"1"}},{"base_weights":[-2.1727508E-2,-4.122645E0,1.0693637E1,-1.2835398E1,-1.3495806E0,8.013952E0,1.6981855E1,-4.451492E0,-1.6438747E1,-6.538257E-1,-1.535296E1,6.809585E0,1.3251471E1,1.4202649E1,2.752751E-1,-3.794292E-1,-5.349368E0,-2.284591E1,-1.3650393E1,2.008236E0,-2.8691013E0,-1.8375635E1,8.0790704E-1,2.250641E-1,6.534585E0,1.0540047E1,2.0427555E-1,1.1474517E1,2.2086132E1,-1.0898046E-2,9.751324E-3,-5.523244E-3,-5.722085E-2,-2.7576733E-1,-1.6861598E-1,-8.938922E-2,-1.5454559E-1,7.221351E-2,1.3884829E-2,-5.4677885E-2,1.0308338E-2,-3.7262462E-2,-2.0761344E-1,-4.234887E-2,1.3010938E-1,4.7498107E-2,8.067752E-2,6.956845E-2,1.6529512E-1,1.21469885E-1,4.3594554E-2,1.4076678E-1,2.8687918E-1],"categories":[],"categories_nodes":[],"categories_segments":[],"categories_sizes":[],"default_left":[0,0,0,0,0,0,0,0,0,0,0,0,0,0,0,0,0,0,0,0,0,0,0,0,0,0,0,0,0,0,0,0,0,0,0,0,0,0,0,0,0,0,0,0,0,0,0,0,0,0,0,0,0],"id":17,"left_children":[1,3,5,7,9,11,13,15,17,19,21,23,25,27,-1,29,31,33,35,37,39,41,43,-1,45,47,-1,49,51,-1,-1,-1,-1,-1,-1,-1,-1,-1,-1,-1,-1,-1,-1,-1,-1,-1,-1,-1,-1,-1,-1,-1,-1],"loss_changes":[5.41377E4,2.151015E4,5.609914E3,6.422E3,6.585919E3,1.4299668E3,2.5691973E3,2.3928003E2,2.367961E3,3.8153533E3,1.5780156E3,7.0762305E2,6.408179E2,1.5101641E3,0E0,1.3571918E1,9.338818E1,7.806836E2,7.7138086E2,9.398413E2,3.583189E3,8.662656E2,4.2432413E2,0E0,4.9800586E2,6.146968E2,0E0,2.4848145E2,6.537031E2,0E0,0E0,0E0,0E0,0E0,0E0,0E0,0E0,0E0,0E0,0E0,0E0,0E0,0E0,0E0,0E0,0E0,0E0,0E0,0E0,0E0,0E0,0E0,0E0],"parents":[2147483647,0,0,1,1,2,2,3,3,4,4,5,5,6,6,7,7,8,8,9,9,10,10,11,11,12,12,13,13,15,15,16,16,17,17,18,18,19,19,20,20,21,21,22,22,24,24,25,25,27,27,28,28],"right_children":[2,4,6,8,10,12,14,16,18,20,22,24,26,28,-1,30,32,34,36,38,40,42,44,-1,46,48,-1,50,52,-1,-1,-1,-1,-1,-1,-1,-1,-1,-1,-1,-1,-1,-1,-1,-1,-1,-1,-1,-1,-1,-1,-1,-1],"split_conditions":[7.8160787E-1,2.1252145E-1,9.8624796E-1,3.0210825E2,6.084466E2,1.3462607E1,9.721971E0,1.8223431E2,3.7164073E-2,4.015106E2,5.772389E2,5.1691914E1,7.684451E1,1.1683424E0,2.752751E-1,1.0935958E-1,1.0809043E1,-6.424755E0,5.1058234E2,-4.1541414E0,5.8968306E-1,2.5252922E1,4.058371E1,2.250641E-1,8.6469513E-1,5.382139E2,2.0427555E-1,5.626795E2,2.758112E2,-1.0898046E-2,9.751324E-3,-5.523244E-3,-5.722085E-2,-2.7576733E-1,-1.6861598E-1,-8.938922E-2,-1.5454559E-1,7.221351E-2,1.3884829E-2,-5.4677885E-2,1.0308338E-2,-3.7262462E-2,-2.0761344E-1,-4.234887E-2,1.3010938E-1,4.7498107E-2,8.067752E-2,6.956845E-2,1.6529512E-1,1.21469885E-1,4.3594554E-2,1.4076678E-1,2.8687918E-1],"split_indices":[8,8,8,6,6,1,1,4,8,6,4,0,0,8,0,8,10,1,6,3,8,9,9,0,8,4,0,6,4,0,0,0,0,0,0,0,0,0,0,0,0,0,0,0,0,0,0,0,0,0,0,0,0],"split_type":[0,0,0,0,0,0,0,0,0,0,0,0,0,0,0,0,0,0,0,0,0,0,0,0,0,0,0,0,0,0,0,0,0,0,0,0,0,0,0,0,0,0,0,0,0,0,0,0,0,0,0,0,0],"sum_hessian":[1.23E3,8.9E2,3.4E2,2.14E2,6.76E2,2.4E2,1E2,6.5E1,1.49E2,6.45E2,3.1E1,1.97E2,4.3E1,8.1E1,1.9E1,1.2E1,5.3E1,4.3E1,1.06E2,2.93E2,3.52E2,2.6E1,5E0,2E0,1.95E2,3.3E1,1E1,6.2E1,1.9E1,8E0,4E0,4E0,4.9E1,2.2E1,2.1E1,3.1E1,7.5E1,3E1,2.63E2,2.11E2,1.41E2,4E0,2.2E1,4E0,1E0,9.2E1,1.03E2,2.2E1,1.1E1,5.6E1,6E0,1E1,9E0],"tree_param":{"num_deleted":"0","num_feature":"11","num_nodes":"53","size_leaf_vector":"1"}},{"base_weights":[2.2848263E-1,-5.2475176E0,8.671582E0,-1.1089647E1,-1.1881773E0,4.9059515E0,1.510866E1,-2.1665197E1,-9.61571E0,1.911667E0,-4.588062E0,1.3484048E1,4.073154E0,1.0871303E1,2.3402185E1,-7.1182E0,-2.3212769E1,-1.4439765E1,-7.4323606E0,6.6777186E0,1.3096143E0,-1.3756046E1,-3.566737E0,2.2626376E-1,1.0377773E1,2.544703E0,7.8722997E0,9.236943E0,1.6487736E1,2.0814285E1,3.762175E1,-1.6319435E-2,-8.0817774E-2,-2.8488977E-2,-2.376011E-1,-6.58076E-2,-1.7122303E-1,-1.6191704E-2,-8.780774E-2,4.410693E-2,8.3058335E-2,-1.1897531E-2,2.1450084E-2,-1.4637084E-1,1.9323522E-2,-8.682389E-3,-8.403628E-2,1.1538341E-1,-8.186024E-3,4.88262E-2,1.5891726E-3,6.0183324E-2,1.7107025E-1,7.23474E-2,1.2102548E-1,8.127043E-2,1.7638448E-1,1.7545898E-1,2.8665796E-1,4.245833E-1,1.5408011E-1],"categories":[],"categories_nodes":[],"categories_segments":[],"categories_sizes":[],"default_left":[0,0,0,0,0,0,0,0,0,0,0,0,0,0,0,0,0,0,0,0,0,0,0,0,0,0,0,0,0,0,0,0,0,0,0,0,0,0,0,0,0,0,0,0,0,0,0,0,0,0,0,0,0,0,0,0,0,0,0,0,0],"id":18,"left_children":[1,3,5,7,9,11,13,15,17,19,21,23,25,27,29,31,33,35,37,39,41,43,45,-1,47,49,51,53,55,57,59,-1,-1,-1,-1,-1,-1,-1,-1,-1,-1,-1,-1,-1,-1,-1,-1,-1,-1,-1,-1,-1,-1,-1,-1,-1,-1,-1,-1,-1,-1],"loss_changes":[5.7468652E4,1.7868082E4,1.1779066E4,4.6082734E3,4.709215E3,2.1596616E3,6.0712617E3,6.677285E2,2.7680762E3,6.626977E2,1.9453599E3,5.319507E2,1.6291006E3,9.583955E2,1.4248594E3,1.3243195E1,3.001289E2,1.6582168E3,1.4751133E3,5.9330933E1,4.3893494E2,3.1854688E2,2.511806E3,0E0,2.9531665E2,1.1370887E3,1.2838354E3,4.6324268E2,1.0679199E2,8.571035E2,2.0530957E2,0E0,0E0,0E0,0E0,0E0,0E0,0E0,0E0,0E0,0E0,0E0,0E0,0E0,0E0,0E0,0E0,0E0,0E0,0E0,0E0,0E0,0E0,0E0,0E0,0E0,0E0,0E0,0E0,0E0,0E0],"parents":[2147483647,0,0,1,1,2,2,3,3,4,4,5,5,6,6,7,7,8,8,9,9,10,10,11,11,12,12,13,13,14,14,15,15,16,16,17,17,18,18,19,19,20,20,21,21,22,22,24,24,25,25,26,26,27,27,28,28,29,29,30,30],"right_children":[2,4,6,8,10,12,14,16,18,20,22,24,26,28,30,32,34,36,38,40,42,44,46,-1,48,50,52,54,56,58,60,-1,-1,-1,-1,-1,-1,-1,-1,-1,-1,-1,-1,-1,-1,-1,-1,-1,-1,-1,-1,-1,-1,-1,-1,-1,-1,-1,-1,-1,-1],"split_conditions":[6.96672E-1,-1.268686E0,9.147283E-1,-4.0733E0,2.897734E2,-1.4477695E0,2.788509E0,1.6982496E1,1.1399896E-1,-4.1541414E0,2.2672199E-1,-1.1730313E1,8.4714115E-1,1.1059353E0,6.8720455E0,-4.4797144E0,6.89128E0,3.0210825E2,4.0257535E2,4.1575086E-1,2.8045288E-1,-6.31009E-2,2.1913073E0,2.2626376E-1,5.671211E2,4.904686E0,2.1587994E1,1.0731552E1,1.6177862E0,3.7603752E1,4.9707022E-1,-1.6319435E-2,-8.0817774E-2,-2.8488977E-2,-2.376011E-1,-6.58076E-2,-1.7122303E-1,-1.6191704E-2,-8.780774E-2,4.410693E-2,8.3058335E-2,-1.1897531E-2,2.1450084E-2,-1.4637084E-1,1.9323522E-2,-8.682389E-3,-8.403628E-2,1.1538341E-1,-8.186024E-3,4.88262E-2,1.5891726E-3,6.0183324E-2,1.7107025E-1,7.23474E-2,1.2102548E-1,8.127043E-2,1.7638448E-1,1.7545898E-1,2.8665796E-1,4.245833E-1,1.5408011E-1],"split_indices":[8,2,8,2,5,1,2,9,8,3,8,3,8,8,2,2,7,6,6,8,8,2,1,0,6,1,7,7,1,9,3,0,0,0,0,0,0,0,0,0,0,0,0,0,0,0,0,0,0,0,0,0,0,0,0,0,0,0,0,0,0],"split_type":[0,0,0,0,0,0,0,0,0,0,0,0,0,0,0,0,0,0,0,0,0,0,0,0,0,0,0,0,0,0,0,0,0,0,0,0,0,0,0,0,0,0,0,0,0,0,0,0,0,0,0,0,0,0,0,0,0,0,0,0,0],"sum_hessian":[1.241E3,7.53E2,4.88E2,3.08E2,4.45E2,3.09E2,1.79E2,3.6E1,2.72E2,2.33E2,2.12E2,2.6E1,2.83E2,1.2E2,5.9E1,4E0,3.2E1,8.3E1,1.89E2,2.5E1,2.08E2,2E1,1.92E2,5E0,2.1E1,2.03E2,8E1,9.5E1,2.5E1,5.2E1,7E0,1E0,3E0,1E0,3.1E1,2.2E1,6.1E1,3.6E1,1.53E2,1.2E1,1.3E1,5.2E1,1.56E2,1.9E1,1E0,1.24E2,6.8E1,1.9E1,2E0,1.02E2,1.01E2,6.8E1,1.2E1,5.8E1,3.7E1,4E0,2.1E1,3.9E1,1.3E1,5E0,2E0],"tree_param":{"num_deleted":"0","num_feature":"11","num_nodes":"61","size_leaf_vector":"1"}},{"base_weights":[-8.097434E-4,-4.3198657E0,1.0264265E1,-9.894705E0,-1.3568328E-1,7.5015182E0,1.7048237E1,-1.3803933E1,-6.036008E0,1.0107224E0,-5.057766E0,4.9587836E0,1.0332356E1,1.4256729E1,3.3032936E1,-4.751495E0,-1.6830647E1,-4.8681283E0,-1.6352173E1,4.9095964E0,1.3220064E-1,7.496153E0,-6.4587126E0,4.5527225E0,1.3336379E1,8.642283E0,1.5818243E1,1.1092796E1,1.8460928E1,4.2104506E-1,2.42867E-1,-6.973689E-2,-2.9151522E-2,-2.3611178E-1,-1.4907528E-1,2.1003344E-4,-6.0207166E-2,-5.830249E-2,-2.3474458E-1,2.991541E-3,8.725593E-2,1.7160458E-2,-2.6700728E-2,-1.7002065E-2,8.7068826E-2,-1.0696463E-1,-1.972207E-2,6.679997E-2,2.8359791E-2,2.002013E-1,-2.075068E-4,1.0112676E-1,6.0931794E-2,1.6494386E-1,4.6855763E-2,7.700314E-2,1.3663189E-1,1.6100524E-1,3.081949E-1],"categories":[],"categories_nodes":[],"categories_segments":[],"categories_sizes":[],"default_left":[0,0,0,0,0,0,0,0,0,0,0,0,0,0,0,0,0,0,0,0,0,0,0,0,0,0,0,0,0,0,0,0,0,0,0,0,0,0,0,0,0,0,0,0,0,0,0,0,0,0,0,0,0,0,0,0,0,0,0],"id":19,"left_children":[1,3,5,7,9,11,13,15,17,19,21,23,25,27,29,31,33,35,37,39,41,43,45,47,49,51,53,55,57,-1,-1,-1,-1,-1,-1,-1,-1,-1,-1,-1,-1,-1,-1,-1,-1,-1,-1,-1,-1,-1,-1,-1,-1,-1,-1,-1,-1,-1,-1],"loss_changes":[5.5241953E4,2.0455684E4,6.7880586E3,5.588461E3,2.8377493E3,1.8490537E3,4.258926E3,5.0162695E3,2.2215703E3,1.3968511E3,1.7192156E3,4.1893945E2,1.0129668E3,1.0189824E3,1.6755371E2,1.7554468E2,1.460543E3,9.750083E2,1.2870015E3,1.3168973E3,1.4869967E3,1.2614661E2,1.6139956E3,4.7772534E2,5.3607007E2,3.0195557E2,1.3347803E2,3.7439014E2,6.122959E2,0E0,0E0,0E0,0E0,0E0,0E0,0E0,0E0,0E0,0E0,0E0,0E0,0E0,0E0,0E0,0E0,0E0,0E0,0E0,0E0,0E0,0E0,0E0,0E0,0E0,0E0,0E0,0E0,0E0,0E0],"parents":[2147483647,0,0,1,1,2,2,3,3,4,4,5,5,6,6,7,7,8,8,9,9,10,10,11,11,12,12,13,13,14,14,15,15,16,16,17,17,18,18,19,19,20,20,21,21,22,22,23,23,24,24,25,25,26,26,27,27,28,28],"right_children":[2,4,6,8,10,12,14,16,18,20,22,24,26,28,30,32,34,36,38,40,42,44,46,48,50,52,54,56,58,-1,-1,-1,-1,-1,-1,-1,-1,-1,-1,-1,-1,-1,-1,-1,-1,-1,-1,-1,-1,-1,-1,-1,-1,-1,-1,-1,-1,-1,-1],"split_conditions":[7.659052E-1,-9.547568E-1,9.8624796E-1,2.1252145E-1,5.6332996E2,8.6469513E-1,5.6027007E0,3.0210825E2,6.132834E2,-3.5716398E0,-8.060944E0,5.455315E2,1.4135324E1,2.050049E0,7.2399475E1,5.281006E-2,5.250983E-3,4.015106E2,2.418964E1,4.5222218E1,2.6008698E2,-4.1286907E-1,5.289209E2,2.4007444E0,7.09463E1,2.437014E1,9.630888E-1,1.0578668E0,3.557208E1,4.2104506E-1,2.42867E-1,-6.973689E-2,-2.9151522E-2,-2.3611178E-1,-1.4907528E-1,2.1003344E-4,-6.0207166E-2,-5.830249E-2,-2.3474458E-1,2.991541E-3,8.725593E-2,1.7160458E-2,-2.6700728E-2,-1.7002065E-2,8.7068826E-2,-1.0696463E-1,-1.972207E-2,6.679997E-2,2.8359791E-2,2.002013E-1,-2.075068E-4,1.0112676E-1,6.0931794E-2,1.6494386E-1,4.6855763E-2,7.700314E-2,1.3663189E-1,1.6100524E-1,3.081949E-1],"split_indices":[8,2,8,8,6,8,2,6,6,3,3,4,1,2,0,8,8,6,10,0,4,2,4,3,0,10,8,8,10,0,0,0,0,0,0,0,0,0,0,0,0,0,0,0,0,0,0,0,0,0,0,0,0,0,0,0,0,0,0],"split_type":[0,0,0,0,0,0,0,0,0,0,0,0,0,0,0,0,0,0,0,0,0,0,0,0,0,0,0,0,0,0,0,0,0,0,0,0,0,0,0,0,0,0,0,0,0,0,0,0,0,0,0,0,0,0,0,0,0,0,0],"sum_hessian":[1.244E3,8.76E2,3.68E2,3.75E2,5.01E2,2.63E2,1.05E2,1.85E2,1.9E2,4.07E2,9.4E1,1.4E2,1.23E2,9.1E1,1.4E1,4.7E1,1.38E2,1.72E2,1.8E1,7.4E1,3.33E2,9E0,8.5E1,1.35E2,5E0,9.6E1,2.7E1,5.4E1,3.7E1,5E0,9E0,2E1,2.7E1,2.8E1,1.1E2,3.3E1,1.39E2,8E0,1E1,3.4E1,4E1,2.13E2,1.2E2,1E0,8E0,4.3E1,4.2E1,5.9E1,7.6E1,3E0,2E0,5.9E1,3.7E1,2.5E1,2E0,2.5E1,2.9E1,3.3E1,4E0],"tree_param":{"num_deleted":"0","num_feature":"11","num_nodes":"59","size_leaf_vector":"1"}},{"base_weights":[2.8879035E-1,-5.020448E0,9.341105E0,-1.1785445E1,-2.175759E0,5.443271E0,1.5066251E1,-4.0896E0,-1.5139173E1,1.9351796E0,-5.1921854E0,3.4660525E0,7.5716877E0,1.2537601E1,2.805017E1,-7.7169406E-1,-5.505722E0,-2.1649164E1,-1.2934862E1,3.4677413E0,7.0841306E-1,-3.8534436E0,-1.4634385E1,7.1911993E0,1.5300994E0,6.319383E0,1.5818763E1,8.776112E0,1.5153126E1,1.0857087E-1,3.1054504E1,3.578864E-3,-2.2759372E-2,-1.4015794E-3,-6.0858887E-2,-2.391586E-1,-1.4367215E-1,-1.1359877E-1,-2.0193842E-1,2.4530968E-2,4.8972644E-2,-3.7627711E-3,3.266842E-2,-6.178677E-2,-1.6435726E-2,-1.7725149E-1,-2.0189593E-2,5.553317E-2,1.6459145E-1,-6.683522E-3,3.9298736E-2,7.602477E-2,2.6334891E-2,1.8086584E-1,-7.932663E-3,7.002437E-2,1.0919935E-1,1.1780376E-1,1.8203469E-1,1.6879453E-1,3.295073E-1],"categories":[],"categories_nodes":[],"categories_segments":[],"categories_sizes":[],"default_left":[0,0,0,0,0,0,0,0,0,0,0,0,0,0,0,0,0,0,0,0,0,0,0,0,0,0,0,0,0,0,0,0,0,0,0,0,0,0,0,0,0,0,0,0,0,0,0,0,0,0,0,0,0,0,0,0,0,0,0,0,0],"id":20,"left_children":[1,3,5,7,9,11,13,15,17,19,21,23,25,27,29,31,33,35,37,39,41,43,45,47,49,51,53,55,57,-1,59,-1,-1,-1,-1,-1,-1,-1,-1,-1,-1,-1,-1,-1,-1,-1,-1,-1,-1,-1,-1,-1,-1,-1,-1,-1,-1,-1,-1,-1,-1],"loss_changes":[6.084393E4,1.533132E4,1.0361727E4,6.0291914E3,6.9914414E3,1.1520918E3,5.8535234E3,3.3874622E2,2.073375E3,4.4688635E2,4.0518252E3,1.0491179E3,1.2839673E3,1.4411367E3,1.2124512E3,3.9895294E1,1.57906E2,3.1663477E2,1.1996992E3,1.4173499E2,3.73093E2,1.4594458E3,1.5238662E3,6.6758716E2,5.196537E2,5.380425E2,6.547905E2,1.821001E2,7.4234375E2,0E0,1.1578711E2,0E0,0E0,0E0,0E0,0E0,0E0,0E0,0E0,0E0,0E0,0E0,0E0,0E0,0E0,0E0,0E0,0E0,0E0,0E0,0E0,0E0,0E0,0E0,0E0,0E0,0E0,0E0,0E0,0E0,0E0],"parents":[2147483647,0,0,1,1,2,2,3,3,4,4,5,5,6,6,7,7,8,8,9,9,10,10,11,11,12,12,13,13,14,14,15,15,16,16,17,17,18,18,19,19,20,20,21,21,22,22,23,23,24,24,25,25,26,26,27,27,28,28,30,30],"right_children":[2,4,6,8,10,12,14,16,18,20,22,24,26,28,30,32,34,36,38,40,42,44,46,48,50,52,54,56,58,-1,60,-1,-1,-1,-1,-1,-1,-1,-1,-1,-1,-1,-1,-1,-1,-1,-1,-1,-1,-1,-1,-1,-1,-1,-1,-1,-1,-1,-1,-1,-1],"split_conditions":[7.116757E-1,2.1252145E-1,9.147283E-1,3.0210825E2,4.015106E2,8.082479E-1,1.906692E1,1.9602713E2,1.9961044E-2,1.8877388E2,5.860938E2,5.703083E1,2.1587994E1,2.5642877E2,2.7120413E2,1.9344817E2,1.0809043E1,3.780386E1,5.5790765E2,1.0271136E1,6.0807E-1,4.644301E-1,5.746566E2,2.3357868E1,7.659052E-1,2.9737286E1,5.622266E1,1.0346234E0,1.0110949E0,1.0857087E-1,2.6259363E1,3.578864E-3,-2.2759372E-2,-1.4015794E-3,-6.0858887E-2,-2.391586E-1,-1.4367215E-1,-1.1359877E-1,-2.0193842E-1,2.4530968E-2,4.8972644E-2,-3.7627711E-3,3.266842E-2,-6.178677E-2,-1.6435726E-2,-1.7725149E-1,-2.0189593E-2,5.553317E-2,1.6459145E-1,-6.683522E-3,3.9298736E-2,7.602477E-2,2.6334891E-2,1.8086584E-1,-7.932663E-3,7.002437E-2,1.0919935E-1,1.1780376E-1,1.8203469E-1,1.6879453E-1,3.295073E-1],"split_indices":[8,8,8,6,6,8,7,5,8,4,6,0,7,4,4,5,10,0,5,7,8,8,4,9,8,10,9,8,8,0,9,0,0,0,0,0,0,0,0,0,0,0,0,0,0,0,0,0,0,0,0,0,0,0,0,0,0,0,0,0,0],"split_type":[0,0,0,0,0,0,0,0,0,0,0,0,0,0,0,0,0,0,0,0,0,0,0,0,0,0,0,0,0,0,0,0,0,0,0,0,0,0,0,0,0,0,0,0,0,0,0,0,0,0,0,0,0,0,0,0,0,0,0,0,0],"sum_hessian":[1.264E3,7.97E2,4.67E2,2.35E2,5.62E2,2.79E2,1.88E2,7.2E1,1.63E2,2.38E2,3.24E2,1.46E2,1.33E2,1.59E2,2.9E1,2.2E1,5E1,3.9E1,1.24E2,1.05E2,1.33E2,2.85E2,3.9E1,4.9E1,9.7E1,1.17E2,1.6E1,6.7E1,9.2E1,5E0,2.4E1,1.3E1,9E0,5E0,4.5E1,2.8E1,1.1E1,1.04E2,2E1,6.3E1,4.2E1,9.4E1,3.9E1,1.38E2,1.47E2,3.1E1,8E0,4.3E1,6E0,5.1E1,4.6E1,8.6E1,3.1E1,1.4E1,2E0,3.9E1,2.8E1,4.6E1,4.6E1,4E0,2E1],"tree_param":{"num_deleted":"0","num_feature":"11","num_nodes":"61","size_leaf_vector":"1"}},{"base_weights":[-1.7150563E-1,-4.334673E0,9.465297E0,-9.767388E0,-3.7302586E-1,5.783997E0,1.3463903E1,-1.5535024E1,-7.356218E0,1.7291217E0,-3.7584915E0,5.4837136E0,2.3374432E-1,1.0217691E1,2.119566E1,-6.3597364E0,-1.8552187E1,-6.0516033E0,-1.6798319E1,1.4572402E0,1.5306889E1,-1.1820601E0,-7.0181684E0,8.878816E0,4.5502753E0,8.818855E0,1.5628142E1,1.1527716E-1,2.2206093E1,-7.3425947E-3,-7.266722E-2,-2.5604382E-1,-1.560811E-1,-1.0898835E-2,-7.388809E-2,-7.430487E-2,-2.0905359E-1,3.7464602E-3,3.6508754E-2,1.7014098E-1,3.385418E-2,-5.814216E-2,3.8219955E-2,-1.00841895E-1,-2.9606113E-2,-6.6057825E-3,9.384953E-2,4.0227726E-2,1.0501119E-1,7.169204E-2,1.18661895E-1,1.2295806E-1,2.0186096E-1,1.926756E-1,2.7546477E-1],"categories":[],"categories_nodes":[],"categories_segments":[],"categories_sizes":[],"default_left":[0,0,0,0,0,0,0,0,0,0,0,0,0,0,0,0,0,0,0,0,0,0,0,0,0,0,0,0,0,0,0,0,0,0,0,0,0,0,0,0,0,0,0,0,0,0,0,0,0,0,0,0,0,0,0],"id":21,"left_children":[1,3,5,7,9,11,13,15,17,19,21,23,-1,25,27,29,31,33,35,37,39,41,43,45,47,49,51,-1,53,-1,-1,-1,-1,-1,-1,-1,-1,-1,-1,-1,-1,-1,-1,-1,-1,-1,-1,-1,-1,-1,-1,-1,-1,-1,-1],"loss_changes":[4.9869598E4,1.8677887E4,5.4421562E3,4.9755938E3,3.5862231E3,9.1239844E2,4.276133E3,2.844129E3,3.1011025E3,1.125764E3,1.6125828E3,5.7757715E2,0E0,8.309258E2,2.5199023E2,1.3752661E2,1.2613398E3,1.5179619E3,1.0373584E3,7.253261E2,6.4515015E1,2.548795E3,1.0275918E3,2.0415747E2,4.443147E2,4.377412E2,1.3151123E2,0E0,1.9111914E2,0E0,0E0,0E0,0E0,0E0,0E0,0E0,0E0,0E0,0E0,0E0,0E0,0E0,0E0,0E0,0E0,0E0,0E0,0E0,0E0,0E0,0E0,0E0,0E0,0E0,0E0],"parents":[2147483647,0,0,1,1,2,2,3,3,4,4,5,5,6,6,7,7,8,8,9,9,10,10,11,11,13,13,14,14,15,15,16,16,17,17,18,18,19,19,20,20,21,21,22,22,23,23,24,24,25,25,26,26,28,28],"right_children":[2,4,6,8,10,12,14,16,18,20,22,24,-1,26,28,30,32,34,36,38,40,42,44,46,48,50,52,-1,54,-1,-1,-1,-1,-1,-1,-1,-1,-1,-1,-1,-1,-1,-1,-1,-1,-1,-1,-1,-1,-1,-1,-1,-1,-1,-1],"split_conditions":[7.659052E-1,-9.9416566E-1,9.147283E-1,1.1399896E-1,4.9596887E2,8.052423E1,2.788509E0,2.7066052E2,6.084466E2,3.1537054E0,1.3149797E0,1.1134176E0,2.3374432E-1,1.1059353E0,3.2777002E2,1.9565643E2,3.1122961E1,2.981517E2,2.6853138E1,3.0354175E-1,-4.352746E0,4.589096E-1,6.784254E-1,4.990648E0,5.729421E2,1.1353711E1,3.950661E2,1.1527716E-1,1.8653185E1,-7.3425947E-3,-7.266722E-2,-2.5604382E-1,-1.560811E-1,-1.0898835E-2,-7.388809E-2,-7.430487E-2,-2.0905359E-1,3.7464602E-3,3.6508754E-2,1.7014098E-1,3.385418E-2,-5.814216E-2,3.8219955E-2,-1.00841895E-1,-2.9606113E-2,-6.6057825E-3,9.384953E-2,4.0227726E-2,1.0501119E-1,7.169204E-2,1.18661895E-1,1.2295806E-1,2.0186096E-1,1.926756E-1,2.7546477E-1],"split_indices":[8,2,8,8,6,0,2,5,6,2,1,1,0,8,5,5,0,5,9,2,1,8,8,7,5,7,5,0,7,0,0,0,0,0,0,0,0,0,0,0,0,0,0,0,0,0,0,0,0,0,0,0,0,0,0],"split_type":[0,0,0,0,0,0,0,0,0,0,0,0,0,0,0,0,0,0,0,0,0,0,0,0,0,0,0,0,0,0,0,0,0,0,0,0,0,0,0,0,0,0,0,0,0,0,0,0,0,0,0,0,0,0,0],"sum_hessian":[1.241E3,8.67E2,3.74E2,3.65E2,5.02E2,1.96E2,1.78E2,1.06E2,2.59E2,3.1E2,1.92E2,1.94E2,2E0,1.27E2,5.1E1,2.7E1,7.9E1,2.29E2,3E1,3.05E2,5E0,1.08E2,8.4E1,4E1,1.54E2,1.03E2,2.4E1,6E0,4.5E1,4E0,2.3E1,2.1E1,5.8E1,4.9E1,1.8E2,1E1,2E1,2.05E2,1E2,4E0,1E0,5.6E1,5.2E1,4.7E1,3.7E1,2E0,3.8E1,1.43E2,1.1E1,6.9E1,3.4E1,1.6E1,8E0,3.2E1,1.3E1],"tree_param":{"num_deleted":"0","num_feature":"11","num_nodes":"55","size_leaf_vector":"1"}},{"base_weights":[5.3478144E-2,-9.355981E0,4.1175947E0,-1.6177662E1,-7.4048963E0,2.1091142E0,1.4494015E1,-2.3675663E1,-1.3659573E1,-3.1046062E0,-9.675771E0,1.8681216E0,2.6216917E1,1.2409095E1,2.689909E1,-3.4168415E-2,-2.4611328E1,-1.0656448E1,-1.877192E1,7.394312E-2,-3.5014539E0,-1.6222435E1,-7.4407783E0,2.8261912E0,-3.1050909E0,1.419343E-1,3.1686172E-1,3.6316347E-1,1.1485692E1,1.2876585E-1,3.098737E1,-8.5739665E-2,-2.6080126E-1,8.05633E-4,-1.14844374E-1,-1.0642958E-1,-2.3580973E-1,-5.3929366E-2,-1.7937241E-2,-2.5734105E-3,-1.6926275E-1,-8.340631E-2,2.1301074E-2,3.0255488E-3,5.801679E-2,-2.288168E-2,-2.061976E-1,6.751531E-2,1.3766214E-1,3.3268675E-1,1.1533016E-1],"categories":[],"categories_nodes":[],"categories_segments":[],"categories_sizes":[],"default_left":[0,0,0,0,0,0,0,0,0,0,0,0,0,0,0,0,0,0,0,0,0,0,0,0,0,0,0,0,0,0,0,0,0,0,0,0,0,0,0,0,0,0,0,0,0,0,0,0,0,0,0],"id":22,"left_children":[1,3,5,7,9,11,13,15,17,19,21,23,25,27,29,-1,31,33,35,-1,37,39,41,43,45,-1,-1,-1,47,-1,49,-1,-1,-1,-1,-1,-1,-1,-1,-1,-1,-1,-1,-1,-1,-1,-1,-1,-1,-1,-1],"loss_changes":[4.6654473E4,4.778166E3,1.7725824E4,1.2059316E3,2.7824014E3,4.1050312E3,3.2353809E3,2.7606152E2,7.6719727E2,4.4670453E2,2.6300605E3,3.3869358E3,1.0581543E1,2.2320059E3,6.9021875E2,0E0,2.003916E2,3.7431055E2,6.090659E2,0E0,3.068805E2,5.2377734E2,1.2407236E3,4.4661294E3,1.5982539E3,0E0,0E0,0E0,1.1702305E3,0E0,2.3765137E2,0E0,0E0,0E0,0E0,0E0,0E0,0E0,0E0,0E0,0E0,0E0,0E0,0E0,0E0,0E0,0E0,0E0,0E0,0E0,0E0],"parents":[2147483647,0,0,1,1,2,2,3,3,4,4,5,5,6,6,7,7,8,8,9,9,10,10,11,11,12,12,13,13,14,14,16,16,17,17,18,18,20,20,21,21,22,22,23,23,24,24,28,28,30,30],"right_children":[2,4,6,8,10,12,14,16,18,20,22,24,26,28,30,-1,32,34,36,-1,38,40,42,44,46,-1,-1,-1,48,-1,50,-1,-1,-1,-1,-1,-1,-1,-1,-1,-1,-1,-1,-1,-1,-1,-1,-1,-1,-1,-1],"split_conditions":[-9.3533754E-1,-3.222927E0,7.0183815E1,2.9842302E1,3.9275406E2,5.6027007E0,8.169588E1,2.3023483E2,5.567915E2,-5.4701715E0,3.9688583E1,5.4752903E0,5.6318737E1,4.9707022E-1,2.7120413E2,-3.4168415E-2,-1.3947427E1,-1.0802712E1,2.6550985E1,7.394312E-2,4.284541E1,-3.1128652E0,5.8673466E1,5.413786E1,5.8890244E1,1.419343E-1,3.1686172E-1,3.6316347E-1,1.2801489E0,1.2876585E-1,6.353436E0,-8.5739665E-2,-2.6080126E-1,8.05633E-4,-1.14844374E-1,-1.0642958E-1,-2.3580973E-1,-5.3929366E-2,-1.7937241E-2,-2.5734105E-3,-1.6926275E-1,-8.340631E-2,2.1301074E-2,3.0255488E-3,5.801679E-2,-2.288168E-2,-2.061976E-1,6.751531E-2,1.3766214E-1,3.3268675E-1,1.1533016E-1],"split_indices":[2,2,0,0,5,2,0,4,5,3,0,3,0,3,4,0,3,3,10,0,0,2,0,0,10,0,0,0,2,0,2,0,0,0,0,0,0,0,0,0,0,0,0,0,0,0,0,0,0,0,0],"split_type":[0,0,0,0,0,0,0,0,0,0,0,0,0,0,0,0,0,0,0,0,0,0,0,0,0,0,0,0,0,0,0,0,0,0,0,0,0,0,0,0,0,0,0,0,0,0,0,0,0,0,0],"sum_hessian":[1.218E3,3.67E2,8.51E2,8E1,2.87E2,7.14E2,1.37E2,1.8E1,6.2E1,1E2,1.87E2,7.08E2,6E0,1.19E2,1.8E1,1E0,1.7E1,4.1E1,2.1E1,3E0,9.7E1,4.6E1,1.41E2,5.94E2,1.14E2,3E0,3E0,3E0,1.16E2,5E0,1.3E1,2E0,1.5E1,3E0,3.8E1,9E0,1.2E1,4.5E1,5.2E1,2E0,4.4E1,1.29E2,1.2E1,3.22E2,2.72E2,1.1E2,4E0,3.9E1,7.7E1,1.1E1,2E0],"tree_param":{"num_deleted":"0","num_feature":"11","num_nodes":"51","size_leaf_vector":"1"}},{"base_weights":[-2.9025586E-2,-4.003296E0,9.677445E0,-9.42127E0,-3.216489E-2,5.622119E0,1.4221633E1,-1.5802832E1,-7.6706095E0,1.7104707E0,-3.0378106E0,5.052935E0,1.8224026E1,1.0548393E1,2.0672583E1,-6.775699E0,-1.8901037E1,-1.5477576E0,-9.214168E0,6.1591377E0,9.76132E-1,-1.1996975E0,-8.123771E0,4.5507593E0,1.5720269E1,7.468685E-2,2.056436E-1,9.087438E0,1.5465713E1,1.8874342E1,3.7038004E-1,-3.73507E-2,-7.4502915E-2,-2.2785945E-1,-1.5149716E-1,-3.145668E-2,1.0008027E-3,-6.364639E-2,-1.3636091E-1,4.5301486E-2,1.626404E-1,1.6509686E-2,-1.6469631E-2,-6.2890284E-2,2.4767688E-2,-1.2359628E-1,-3.7383772E-2,6.968547E-2,2.9850308E-2,-1.2222473E-2,1.8315235E-1,3.8466964E-2,9.944544E-2,1.0863648E-1,1.8524101E-1,1.6768476E-1,2.4144606E-1],"categories":[],"categories_nodes":[],"categories_segments":[],"categories_sizes":[],"default_left":[0,0,0,0,0,0,0,0,0,0,0,0,0,0,0,0,0,0,0,0,0,0,0,0,0,0,0,0,0,0,0,0,0,0,0,0,0,0,0,0,0,0,0,0,0,0,0,0,0,0,0,0,0,0,0,0,0],"id":23,"left_children":[1,3,5,7,9,11,13,15,17,19,21,23,25,27,29,31,33,35,37,39,41,43,45,47,49,-1,-1,51,53,55,-1,-1,-1,-1,-1,-1,-1,-1,-1,-1,-1,-1,-1,-1,-1,-1,-1,-1,-1,-1,-1,-1,-1,-1,-1,-1,-1],"loss_changes":[4.8336074E4,1.912696E4,6.6278945E3,4.0794375E3,2.697397E3,1.299439E3,3.8339375E3,2.1093633E3,2.7926797E3,1.058974E3,1.7571334E3,9.301963E2,4.7779785E1,6.5687695E2,1.0960996E3,1.7298828E1,5.146387E2,1.6093372E2,2.8995059E3,6.835171E2,5.0013416E2,2.6350818E3,8.825901E2,6.606067E2,3.741079E2,0E0,0E0,3.5703125E2,1.365586E2,2.2774219E2,0E0,0E0,0E0,0E0,0E0,0E0,0E0,0E0,0E0,0E0,0E0,0E0,0E0,0E0,0E0,0E0,0E0,0E0,0E0,0E0,0E0,0E0,0E0,0E0,0E0,0E0,0E0],"parents":[2147483647,0,0,1,1,2,2,3,3,4,4,5,5,6,6,7,7,8,8,9,9,10,10,11,11,12,12,13,13,14,14,15,15,16,16,17,17,18,18,19,19,20,20,21,21,22,22,23,23,24,24,27,27,28,28,29,29],"right_children":[2,4,6,8,10,12,14,16,18,20,22,24,26,28,30,32,34,36,38,40,42,44,46,48,50,-1,-1,52,54,56,-1,-1,-1,-1,-1,-1,-1,-1,-1,-1,-1,-1,-1,-1,-1,-1,-1,-1,-1,-1,-1,-1,-1,-1,-1,-1,-1],"split_conditions":[7.659052E-1,-9.9416566E-1,9.147283E-1,6.890258E-2,4.305404E2,7.684451E1,2.6357284E0,2.3023483E2,2.899612E2,-3.477717E0,4.3754425E0,5.455315E2,1.3892997E1,1.1059353E0,8.590269E0,1.8922119E2,3.2712204E1,2.0699379E-1,1.0092844E1,3.1537054E0,2.6008698E2,4.589096E-1,6.7979777E-1,1.4573364E0,6.0091793E1,7.468685E-2,2.056436E-1,1.3428057E1,1.3890833E0,3.7603752E1,3.7038004E-1,-3.73507E-2,-7.4502915E-2,-2.2785945E-1,-1.5149716E-1,-3.145668E-2,1.0008027E-3,-6.364639E-2,-1.3636091E-1,4.5301486E-2,1.626404E-1,1.6509686E-2,-1.6469631E-2,-6.2890284E-2,2.4767688E-2,-1.2359628E-1,-3.7383772E-2,6.968547E-2,2.9850308E-2,-1.2222473E-2,1.8315235E-1,3.8466964E-2,9.944544E-2,1.0863648E-1,1.8524101E-1,1.6768476E-1,2.4144606E-1],"split_indices":[8,2,8,8,4,0,2,4,4,3,3,4,3,8,2,4,0,8,7,2,4,8,8,3,0,0,0,10,2,9,0,0,0,0,0,0,0,0,0,0,0,0,0,0,0,0,0,0,0,0,0,0,0,0,0,0,0],"split_type":[0,0,0,0,0,0,0,0,0,0,0,0,0,0,0,0,0,0,0,0,0,0,0,0,0,0,0,0,0,0,0,0,0,0,0,0,0,0,0,0,0,0,0,0,0,0,0,0,0,0,0,0,0,0,0,0,0],"sum_hessian":[1.251E3,8.88E2,3.63E2,3.75E2,5.13E2,1.93E2,1.7E2,7.9E1,2.96E2,3.25E2,1.88E2,1.86E2,7E0,1.1E2,6E1,2.1E1,5.8E1,6E1,2.36E2,4.5E1,2.8E2,1.39E2,4.9E1,1.79E2,7E0,2E0,5E0,8.7E1,2.3E1,5.6E1,4E0,5E0,1.6E1,2.6E1,3.2E1,3E1,3E1,1.45E2,9.1E1,4E1,5E0,2.23E2,5.7E1,5.8E1,8.1E1,2.4E1,2.5E1,6.9E1,1.1E2,1E0,6E0,1.3E1,7.4E1,1.1E1,1.2E1,4.3E1,1.3E1],"tree_param":{"num_deleted":"0","num_feature":"11","num_nodes":"57","size_leaf_vector":"1"}},{"base_weights":[-6.6050425E-2,-9.245834E0,4.2641144E0,-4.157018E0,-1.1793745E1,2.121431E0,1.3607975E1,-1.2844212E1,-3.2050626E0,-8.4097595E0,-1.6590773E1,1.2314163E0,1.0126616E1,7.2571096E0,1.7422207E1,-5.7711716E0,-2.0134228E-1,7.00326E-2,-3.4316735E0,-1.0841192E1,-4.6691995E0,-2.5281029E1,-1.4594008E1,2.7063363E0,-1.5211016E0,8.917111E0,3.3763343E-1,8.687858E0,4.3258805E0,1.859087E1,1.9508882E0,-1.5411952E-2,-6.1552834E-2,-1.6989826E-3,-4.154796E-2,-3.0347748E-2,-1.2626657E-1,-3.3265678E-3,-6.1077826E-2,-2.6117215E-1,-5.1148176E-2,-1.2812413E-1,-2.3477603E-1,7.806508E-3,4.725336E-2,-4.900238E-2,3.5899575E-3,1.0163154E-1,-1.5428429E-2,1.13650635E-1,7.41662E-2,3.00629E-2,6.7241035E-2,3.5688108E-1,1.7394583E-1,6.428519E-2,-2.0213945E-2],"categories":[],"categories_nodes":[],"categories_segments":[],"categories_sizes":[],"default_left":[0,0,0,0,0,0,0,0,0,0,0,0,0,0,0,0,0,0,0,0,0,0,0,0,0,0,0,0,0,0,0,0,0,0,0,0,0,0,0,0,0,0,0,0,0,0,0,0,0,0,0,0,0,0,0,0,0],"id":24,"left_children":[1,3,5,7,9,11,13,15,17,19,21,23,25,27,29,31,-1,-1,33,35,37,39,41,43,45,47,-1,49,51,53,55,-1,-1,-1,-1,-1,-1,-1,-1,-1,-1,-1,-1,-1,-1,-1,-1,-1,-1,-1,-1,-1,-1,-1,-1,-1,-1],"loss_changes":[4.9607645E4,5.1373086E3,1.6948883E4,1.0752595E3,4.1784766E3,4.9107197E3,3.7009082E3,5.541157E2,3.0857068E2,1.386377E3,1.522459E3,2.5333372E3,1.6715508E3,2.1824219E2,1.7356426E3,3.5117798E0,0E0,0E0,2.8469263E2,1.2857988E3,3.9723083E2,1.8680762E2,1.1394473E3,1.574822E3,1.3867361E3,8.8892773E2,0E0,5.184424E1,4.9408234E1,1.2404648E3,1.5528589E2,0E0,0E0,0E0,0E0,0E0,0E0,0E0,0E0,0E0,0E0,0E0,0E0,0E0,0E0,0E0,0E0,0E0,0E0,0E0,0E0,0E0,0E0,0E0,0E0,0E0,0E0],"parents":[2147483647,0,0,1,1,2,2,3,3,4,4,5,5,6,6,7,7,8,8,9,9,10,10,11,11,12,12,13,13,14,14,15,15,18,18,19,19,20,20,21,21,22,22,23,23,24,24,25,25,27,27,28,28,29,29,30,30],"right_children":[2,4,6,8,10,12,14,16,18,20,22,24,26,28,30,32,-1,-1,34,36,38,40,42,44,46,48,-1,50,52,54,56,-1,-1,-1,-1,-1,-1,-1,-1,-1,-1,-1,-1,-1,-1,-1,-1,-1,-1,-1,-1,-1,-1,-1,-1,-1,-1],"split_conditions":[-9.1113156E-1,4.2395163E2,6.85147E1,2.9842302E1,1.0344474E1,2.788509E0,2.5798352E2,2.3023483E2,-1.13085165E1,4.7715443E1,3.1122961E1,4.9596887E2,6.8720455E0,4.1818512E1,5.816797E1,1.8211232E2,-2.0134228E-1,7.00326E-2,1.8877388E2,-3.5716398E0,5.7273445E0,6.237724E2,6.132834E2,3.0354175E-1,5.0476574E1,8.549074E0,3.3763343E-1,3.1777213E0,7.684451E1,2.2293475E0,5.8890244E1,-1.5411952E-2,-6.1552834E-2,-1.6989826E-3,-4.154796E-2,-3.0347748E-2,-1.2626657E-1,-3.3265678E-3,-6.1077826E-2,-2.6117215E-1,-5.1148176E-2,-1.2812413E-1,-2.3477603E-1,7.806508E-3,4.725336E-2,-4.900238E-2,3.5899575E-3,1.0163154E-1,-1.5428429E-2,1.13650635E-1,7.41662E-2,3.00629E-2,6.7241035E-2,3.5688108E-1,1.7394583E-1,6.428519E-2,-2.0213945E-2],"split_indices":[2,6,0,0,7,2,4,4,3,0,0,6,2,10,10,4,0,0,4,3,7,6,6,2,0,3,0,3,0,3,10,0,0,0,0,0,0,0,0,0,0,0,0,0,0,0,0,0,0,0,0,0,0,0,0,0,0],"split_type":[0,0,0,0,0,0,0,0,0,0,0,0,0,0,0,0,0,0,0,0,0,0,0,0,0,0,0,0,0,0,0,0,0,0,0,0,0,0,0,0,0,0,0,0,0,0,0,0,0,0,0,0,0,0,0,0,0],"sum_hessian":[1.246E3,3.99E2,8.47E2,1.34E2,2.65E2,6.9E2,1.57E2,1.2E1,1.22E2,1.57E2,1.08E2,6.22E2,6.8E1,6E1,9.7E1,7E0,5E0,2E0,1.2E2,9.4E1,6.3E1,1.8E1,9E1,4.05E2,2.17E2,6.6E1,2E0,3.9E1,2.1E1,9E1,7E0,1E0,6E0,2.2E1,9.8E1,1.8E1,7.6E1,1.6E1,4.7E1,1.7E1,1E0,7.7E1,1.3E1,2.08E2,1.97E2,7.7E1,1.4E2,5.9E1,7E0,1E1,2.9E1,1.5E1,6E0,4E0,8.6E1,3E0,4E0],"tree_param":{"num_deleted":"0","num_feature":"11","num_nodes":"57","size_leaf_vector":"1"}},{"base_weights":[-1.0124405E-3,-4.51191E0,8.13649E0,-9.10635E0,-6.679769E-1,3.8132734E0,1.2519616E1,-1.4466609E1,-6.809411E0,1.3551999E0,-4.035962E0,1.1730127E1,2.6126819E0,9.903858E0,2.147669E1,-6.1372414E0,-1.7475792E1,-5.8949275E0,-1.7625637E1,1.22156315E-1,4.1352963E0,-2.38579E0,-1.1547227E1,1.6919516E1,7.8352447E0,2.2897727E0,1.2725598E1,8.66917E0,1.3636694E1,1.1804218E1,2.5284771E1,-1.290193E-2,-7.2489254E-2,-2.2680338E-1,-1.4137095E-1,-1.4471644E-2,-7.005149E-2,-6.377778E-2,-2.3191576E-1,5.525204E-3,-6.486939E-2,7.548577E-2,2.692275E-2,-6.132941E-2,8.935515E-3,-1.3619255E-1,-4.1467465E-2,1.8622923E-1,5.6016482E-2,-8.805651E-3,1.0218164E-1,4.3555506E-2,7.338865E-3,1.941691E-1,-4.380169E-3,7.6185904E-2,1.2589318E-1,1.4473393E-2,1.4209978E-1,3.697628E-2,1.6298409E-1,1.7902358E-1,3.2048362E-1],"categories":[],"categories_nodes":[],"categories_segments":[],"categories_sizes":[],"default_left":[0,0,0,0,0,0,0,0,0,0,0,0,0,0,0,0,0,0,0,0,0,0,0,0,0,0,0,0,0,0,0,0,0,0,0,0,0,0,0,0,0,0,0,0,0,0,0,0,0,0,0,0,0,0,0,0,0,0,0,0,0,0,0],"id":25,"left_children":[1,3,5,7,9,11,13,15,17,19,21,23,25,27,29,31,33,35,37,39,41,43,45,47,49,51,53,55,57,59,61,-1,-1,-1,-1,-1,-1,-1,-1,-1,-1,-1,-1,-1,-1,-1,-1,-1,-1,-1,-1,-1,-1,-1,-1,-1,-1,-1,-1,-1,-1,-1,-1],"loss_changes":[4.6728574E4,1.4458049E4,8.555197E3,4.4939375E3,3.0513408E3,2.155482E3,5.0589414E3,2.674916E3,2.497498E3,9.5932935E2,2.0547905E3,4.7379297E2,6.272377E2,6.929453E2,1.5432129E3,1.576875E2,1.0868535E3,1.1947354E3,1.104188E3,5.5822595E2,4.0326465E2,1.7135383E3,4.035442E2,1.2702832E2,4.0361035E2,6.2677E2,5.3699603E2,4.6007422E2,2.7292773E2,5.226555E2,1.1738652E3,0E0,0E0,0E0,0E0,0E0,0E0,0E0,0E0,0E0,0E0,0E0,0E0,0E0,0E0,0E0,0E0,0E0,0E0,0E0,0E0,0E0,0E0,0E0,0E0,0E0,0E0,0E0,0E0,0E0,0E0,0E0,0E0],"parents":[2147483647,0,0,1,1,2,2,3,3,4,4,5,5,6,6,7,7,8,8,9,9,10,10,11,11,12,12,13,13,14,14,15,15,16,16,17,17,18,18,19,19,20,20,21,21,22,22,23,23,24,24,25,25,26,26,27,27,28,28,29,29,30,30],"right_children":[2,4,6,8,10,12,14,16,18,20,22,24,26,28,30,32,34,36,38,40,42,44,46,48,50,52,54,56,58,60,62,-1,-1,-1,-1,-1,-1,-1,-1,-1,-1,-1,-1,-1,-1,-1,-1,-1,-1,-1,-1,-1,-1,-1,-1,-1,-1,-1,-1,-1,-1,-1,-1],"split_conditions":[7.116757E-1,-9.9416566E-1,8.6469513E-1,1.1399896E-1,4.9596887E2,-2.9041374E0,3.9965994E0,3.0210825E2,6.132834E2,3.0354175E-1,5.4752903E0,4.4597308E2,5.967742E2,2.0771406E0,9.398055E-1,1.9626985E2,5.250983E-3,2.9736023E2,2.418964E1,4.2689703E2,-4.1541414E0,4.644301E-1,6.784254E-1,8.151784E-1,5.269399E1,3.1777213E0,7.210954E1,1.0662879E0,1.1892008E1,2.1587994E1,1.6200912E1,-1.290193E-2,-7.2489254E-2,-2.2680338E-1,-1.4137095E-1,-1.4471644E-2,-7.005149E-2,-6.377778E-2,-2.3191576E-1,5.525204E-3,-6.486939E-2,7.548577E-2,2.692275E-2,-6.132941E-2,8.935515E-3,-1.3619255E-1,-4.1467465E-2,1.8622923E-1,5.6016482E-2,-8.805651E-3,1.0218164E-1,4.3555506E-2,7.338865E-3,1.941691E-1,-4.380169E-3,7.6185904E-2,1.2589318E-1,1.4473393E-2,1.4209978E-1,3.697628E-2,1.6298409E-1,1.7902358E-1,3.2048362E-1],"split_indices":[8,2,8,8,6,3,2,6,6,2,3,5,5,2,8,5,8,5,10,6,3,8,8,8,0,3,0,8,10,7,7,0,0,0,0,0,0,0,0,0,0,0,0,0,0,0,0,0,0,0,0,0,0,0,0,0,0,0,0,0,0,0,0],"split_type":[0,0,0,0,0,0,0,0,0,0,0,0,0,0,0,0,0,0,0,0,0,0,0,0,0,0,0,0,0,0,0,0,0,0,0,0,0,0,0,0,0,0,0,0,0,0,0,0,0,0,0,0,0,0,0,0,0,0,0,0,0,0,0],"sum_hessian":[1.271E3,8.18E2,4.53E2,3.72E2,4.46E2,2.29E2,2.24E2,1.1E2,2.62E2,2.79E2,1.67E2,2.9E1,2E2,1.75E2,4.9E1,3E1,8E1,2.43E2,1.9E1,1.94E2,8.5E1,1.38E2,2.9E1,1.1E1,1.8E1,1.95E2,5E0,1.34E2,4.1E1,1.5E1,3.4E1,6E0,2.4E1,2.9E1,5.1E1,4.9E1,1.94E2,7E0,1.2E1,1.83E2,1.1E1,2.4E1,6.1E1,6.4E1,7.4E1,2.2E1,7E0,9E0,2E0,4E0,1.4E1,8.3E1,1.12E2,3E0,2E0,1.08E2,2.6E1,2E0,3.9E1,6E0,9E0,1.8E1,1.6E1],"tree_param":{"num_deleted":"0","num_feature":"11","num_nodes":"63","size_leaf_vector":"1"}},{"base_weights":[-3.608318E-2,-4.279907E0,9.634926E0,-1.1888864E1,-1.6364872E0,6.7961626E0,1.6360369E1,-4.34313E0,-1.49765005E1,1.1028608E0,-5.1511855E0,3.9005282E0,8.904126E0,8.378929E0,2.2634327E1,-1.6203699E0,-5.795585E0,-2.3794384E1,-1.3338998E1,2.9912212E0,-2.1633399E0,-3.133948E0,-1.1071674E1,5.4971433E0,1.2718104E0,7.8908625E0,1.4244134E1,2.1851152E-1,7.3623543E0,1.7678654E1,2.9537714E1,-2.9066103E-2,1.6396974E-3,-7.245251E-2,-1.5676493E-2,-3.2183275E-2,-2.4583371E-1,-1.178889E-1,-1.8268074E-1,2.1988181E-2,1.1508515E-1,2.0554393E-4,-5.1814582E-2,-5.8850985E-2,1.3703065E-3,-1.9237342E-1,-5.809294E-2,-1.8427433E-3,6.0326558E-2,4.453022E-2,-1.3240312E-2,7.2748676E-2,1.637542E-1,5.2592866E-2,1.484939E-1,6.160746E-2,1.6464032E-1,1.9962624E-1,6.6184446E-2,1.0309047E-1,3.2867995E-1],"categories":[],"categories_nodes":[],"categories_segments":[],"categories_sizes":[],"default_left":[0,0,0,0,0,0,0,0,0,0,0,0,0,0,0,0,0,0,0,0,0,0,0,0,0,0,0,0,0,0,0,0,0,0,0,0,0,0,0,0,0,0,0,0,0,0,0,0,0,0,0,0,0,0,0,0,0,0,0,0,0],"id":26,"left_children":[1,3,5,7,9,11,13,15,17,19,21,23,25,27,29,31,33,35,37,39,41,43,45,47,49,51,53,-1,55,57,59,-1,-1,-1,-1,-1,-1,-1,-1,-1,-1,-1,-1,-1,-1,-1,-1,-1,-1,-1,-1,-1,-1,-1,-1,-1,-1,-1,-1,-1,-1],"loss_changes":[5.0194637E4,1.707716E4,7.0101016E3,5.037324E3,6.090566E3,1.5766973E3,5.318623E3,2.476637E2,1.9206992E3,2.202195E3,3.273522E3,4.6727527E2,7.100488E2,5.239004E2,1.5646777E3,5.555875E1,2.4606396E2,2.942705E2,8.0083984E2,1.499998E3,8.6356036E2,1.8725891E3,2.896204E3,2.1408472E2,3.6924448E2,5.603081E2,4.697998E1,0E0,4.2352856E2,8.2780273E2,1.1980488E3,0E0,0E0,0E0,0E0,0E0,0E0,0E0,0E0,0E0,0E0,0E0,0E0,0E0,0E0,0E0,0E0,0E0,0E0,0E0,0E0,0E0,0E0,0E0,0E0,0E0,0E0,0E0,0E0,0E0,0E0],"parents":[2147483647,0,0,1,1,2,2,3,3,4,4,5,5,6,6,7,7,8,8,9,9,10,10,11,11,12,12,13,13,14,14,15,15,16,16,17,17,18,18,19,19,20,20,21,21,22,22,23,23,24,24,25,25,26,26,28,28,29,29,30,30],"right_children":[2,4,6,8,10,12,14,16,18,20,22,24,26,28,30,32,34,36,38,40,42,44,46,48,50,52,54,-1,56,58,60,-1,-1,-1,-1,-1,-1,-1,-1,-1,-1,-1,-1,-1,-1,-1,-1,-1,-1,-1,-1,-1,-1,-1,-1,-1,-1,-1,-1,-1,-1],"split_conditions":[7.659052E-1,2.1252145E-1,2.788509E0,3.0210825E2,4.9280362E2,8.6469513E-1,9.094017E-1,1.8877388E2,3.1122961E1,3.529116E0,5.2789006E0,4.904686E0,1.1059353E0,5.1691914E1,1.906692E1,-1.5537081E0,4.1760426E1,2.3023483E2,5.730207E2,1.6962132E0,2.899612E2,4.644301E-1,5.67297E1,4.7260056E0,4.130889E2,1.4135324E1,1.6177862E0,2.1851152E-1,7.582872E1,1.6836653E1,2.7120413E2,-2.9066103E-2,1.6396974E-3,-7.245251E-2,-1.5676493E-2,-3.2183275E-2,-2.4583371E-1,-1.178889E-1,-1.8268074E-1,2.1988181E-2,1.1508515E-1,2.0554393E-4,-5.1814582E-2,-5.8850985E-2,1.3703065E-3,-1.9237342E-1,-5.809294E-2,-1.8427433E-3,6.0326558E-2,4.453022E-2,-1.3240312E-2,7.2748676E-2,1.637542E-1,5.2592866E-2,1.484939E-1,6.160746E-2,1.6464032E-1,1.9962624E-1,6.6184446E-2,1.0309047E-1,3.2867995E-1],"split_indices":[8,8,2,6,6,8,8,4,0,3,1,1,8,0,7,3,0,4,6,2,4,8,0,7,6,1,1,0,0,7,4,0,0,0,0,0,0,0,0,0,0,0,0,0,0,0,0,0,0,0,0,0,0,0,0,0,0,0,0,0,0],"split_type":[0,0,0,0,0,0,0,0,0,0,0,0,0,0,0,0,0,0,0,0,0,0,0,0,0,0,0,0,0,0,0,0,0,0,0,0,0,0,0,0,0,0,0,0,0,0,0,0,0,0,0,0,0,0,0,0,0,0,0,0,0],"sum_hessian":[1.221E3,8.49E2,3.72E2,2.18E2,6.31E2,2.63E2,1.09E2,6.4E1,1.54E2,3.55E2,2.76E2,1.12E2,1.51E2,4.9E1,6E1,2.3E1,4.1E1,2.2E1,1.32E2,2.25E2,1.3E2,2.07E2,6.9E1,6.9E1,4.3E1,1.29E2,2.2E1,2E0,4.7E1,3.7E1,2.3E1,1.3E1,1E1,3E1,1.1E1,1E0,2.1E1,1.03E2,2.9E1,2.07E2,1.8E1,7.6E1,5.4E1,1.12E2,9.5E1,2.6E1,4.3E1,6E0,6.3E1,1.9E1,2.4E1,1.22E2,7E0,2E0,2E1,4.3E1,4E0,3E1,7E0,4E0,1.9E1],"tree_param":{"num_deleted":"0","num_feature":"11","num_nodes":"61","size_leaf_vector":"1"}},{"base_weights":[5.36659E-3,-4.340495E0,8.595061E0,-9.213137E0,-3.7017426E-1,6.2292356E0,1.59536295E1,-1.2673547E1,-5.6109347E0,1.5713556E0,-3.0194197E0,5.32985E0,1.5546673E1,1.137478E1,2.4524687E1,-4.862014E0,-1.5243627E1,-4.2066584E0,-1.712631E1,-7.7059764E-1,2.51459E0,